{"learner":{"attributes":{"scikit_learn":"{\"_estimator_type\": \"regressor\"}"},"feature_names":[],"feature_types":[],"gradient_booster":{"model":{"gbtree_model_param":{"num_parallel_tree":"1","num_trees":"100"},"iteration_indptr":[0,1,2,3,4,5,6,7,8,9,10,11,12,13,14,15,16,17,18,19,20,21,22,23,24,25,26,27,28,29,30,31,32,33,34,35,36,37,38,39,40,41,42,43,44,45,46,47,48,49,50,51,52,53,54,55,56,57,58,59,60,61,62,63,64,65,66,67,68,69,70,71,72,73,74,75,76,77,78,79,80,81,82,83,84,85,86,87,88,89,90,91,92,93,94,95,96,97,98,99,100],"tree_info":[0,0,0,0,0,0,0,0,0,0,0,0,0,0,0,0,0,0,0,0,0,0,0,0,0,0,0,0,0,0,0,0,0,0,0,0,0,0,0,0,0,0,0,0,0,0,0,0,0,0,0,0,0,0,0,0,0,0,0,0,0,0,0,0,0,0,0,0,0,0,0,0,0,0,0,0,0,0,0,0,0,0,0,0,0,0,0,0,0,0,0,0,0,0,0,0,0,0,0,0],"trees":[{"base_weights":[-1.8881471E-7,-4.1299695E-1,3.3996665E-1,-5.0717837E-1,-5.125881E-2,4.266042E-2,4.8552915E-1,-6.438822E-1,-3.9757258E-1,-1.1232336E-1,7.599616E-2,-6.313006E-3,2.3912802E-1,2.3558444E-1,5.225143E-1,-2.1764605E-1,-1.2166108E-1,-4.2820984E-1,-1.3724482E-1,-5.12524E-2,-5.90746E-2,2.4703344E-2,3.6704496E-2,-7.246142E-2,1.9936765E-2,7.549882E-2,1.7067147E-2,6.804943E-2,8.5727595E-2,5.952894E-2,5.4213315E-1,-1.3941465E-1,-2.8810647E-1,-1.2015224E-2,-4.362245E-2,-6.3392855E-2,-1.7360687E-3,-2.1437646E-3,3.2502364E-2,-2.8362859E-2,-3.0942598E-2,-2.8564455E-2,3.4625754E-2,3.701663E-3,2.3667706E-2,2.453274E-1,1.6706388E-1,-9.866226E-2,-5.368116E-2,-2.1884844E-2,-1.1200505E-2,1.1206448E-2,1.9638778E-3,-1.491952E-3,-1.0542555E-2,-5.464268E-4,2.9323665E-2,1.7138958E-2,8.146229E-2],"categories":[],"categories_nodes":[],"categories_segments":[],"categories_sizes":[],"default_left":[0,0,0,0,0,0,0,0,0,0,0,0,0,0,0,0,0,0,0,0,0,0,0,0,0,0,0,0,0,0,0,0,0,0,0,0,0,0,0,0,0,0,0,0,0,0,0,0,0,0,0,0,0,0,0,0,0,0,0],"id":0,"left_children":[1,3,5,7,9,11,13,15,17,19,21,23,25,27,29,-1,-1,31,33,-1,35,37,-1,39,41,-1,-1,43,-1,-1,45,-1,47,-1,-1,49,-1,-1,51,-1,53,-1,55,-1,-1,57,-1,-1,-1,-1,-1,-1,-1,-1,-1,-1,-1,-1,-1],"loss_changes":[4.1981155E1,4.5733185E0,7.0766582E0,1.3472481E0,2.3388837E-1,5.307027E-1,8.937683E-1,6.0049057E-1,4.357252E-1,5.2227795E-2,2.07529E-2,7.958178E-2,1.0810018E-2,1.150493E-1,4.9645042E-1,0E0,0E0,1.4741421E-1,5.237311E-4,0E0,2.3944713E-3,1.7226152E-3,0E0,8.992933E-3,5.9115093E-2,0E0,0E0,2.0468812E-3,0E0,0E0,2.5292015E-1,0E0,3.460288E-3,0E0,0E0,1.5702099E-5,0E0,0E0,3.8522063E-4,0E0,4.7954638E-4,0E0,6.919418E-2,0E0,0E0,1.4086813E-2,0E0,0E0,0E0,0E0,0E0,0E0,0E0,0E0,0E0,0E0,0E0,0E0,0E0],"parents":[2147483647,0,0,1,1,2,2,3,3,4,4,5,5,6,6,7,7,8,8,9,9,10,10,11,11,12,12,13,13,14,14,17,17,18,18,20,20,21,21,23,23,24,24,27,27,30,30,32,32,35,35,38,38,40,40,42,42,45,45],"right_children":[2,4,6,8,10,12,14,16,18,20,22,24,26,28,30,-1,-1,32,34,-1,36,38,-1,40,42,-1,-1,44,-1,-1,46,-1,48,-1,-1,50,-1,-1,52,-1,54,-1,56,-1,-1,58,-1,-1,-1,-1,-1,-1,-1,-1,-1,-1,-1,-1,-1],"split_conditions":[3.14587E-1,2.688928E-1,4.1827768E-1,1.3884006E-1,3.9367312E-1,4.920914E-1,3.5852373E-1,1.7574692E-1,2.8119507E-1,3.4446397E-1,4.56942E-1,3.3040422E-1,3.831283E-1,4.920914E-1,3.5852373E-1,-2.1764605E-1,-1.2166108E-1,2.1441124E-1,1.6871704E-1,-5.12524E-2,4.0421793E-1,4.0421793E-1,3.6704496E-2,3.532513E-1,1.6871704E-1,7.549882E-2,1.7067147E-2,4.3760985E-1,8.5727595E-2,5.952894E-2,3.5852373E-1,-1.3941465E-1,2.5307557E-1,-1.2015224E-2,-4.362245E-2,3.602812E-1,-1.7360687E-3,-2.1437646E-3,4.1827768E-1,-2.8362859E-2,3.6203867E-1,-2.8564455E-2,3.5500878E-1,3.701663E-3,2.3667706E-2,4.235501E-1,1.6706388E-1,-9.866226E-2,-5.368116E-2,-2.1884844E-2,-1.1200505E-2,1.1206448E-2,1.9638778E-3,-1.491952E-3,-1.0542555E-2,-5.464268E-4,2.9323665E-2,1.7138958E-2,8.146229E-2],"split_indices":[2,0,0,2,0,2,4,0,3,0,0,3,0,0,2,0,0,1,2,0,1,0,0,0,0,0,0,0,0,0,5,0,2,0,0,0,0,0,3,0,0,0,5,0,0,0,0,0,0,0,0,0,0,0,0,0,0,0,0],"split_type":[0,0,0,0,0,0,0,0,0,0,0,0,0,0,0,0,0,0,0,0,0,0,0,0,0,0,0,0,0,0,0,0,0,0,0,0,0,0,0,0,0,0,0,0,0,0,0,0,0,0,0,0,0,0,0,0,0,0,0],"sum_hessian":[2.97E2,1.34E2,1.63E2,1.06E2,2.8E1,5.4E1,1.09E2,4.5E1,6.1E1,1.9E1,9E0,4.4E1,1E1,1.5E1,9.4E1,3.2E1,1.3E1,5.4E1,7E0,8E0,1.1E1,5E0,4E0,1.2E1,3.2E1,9E0,1E0,4E0,1.1E1,6E0,8.8E1,4.1E1,1.3E1,1E0,6E0,1E1,1E0,1E0,4E0,7E0,5E0,3E0,2.9E1,1E0,3E0,5E0,8.3E1,8E0,5E0,6E0,4E0,3E0,1E0,1E0,4E0,1.9E1,1E1,1E0,4E0],"tree_param":{"num_deleted":"0","num_feature":"6","num_nodes":"59","size_leaf_vector":"1"}},{"base_weights":[-7.865333E-4,-2.955451E-1,2.4185488E-1,-3.7937078E-1,-7.94775E-2,3.104246E-2,3.422334E-1,-4.6825692E-1,-2.9674345E-1,-1.4812534E-1,5.7945756E-4,-3.2716752E-3,1.8235183E-1,2.4835667E-1,4.0484837E-1,-1.581329E-1,-3.0028948E-1,-3.1489077E-1,-1.3250521E-1,-1.6819903E-1,-2.0972371E-2,-4.383116E-2,4.4932127E-2,-4.0541787E-2,2.8166084E-2,5.7560146E-2,1.4507104E-2,1.7298244E-1,1.02438845E-1,3.033721E-1,1.2953767E-1,-9.3584634E-2,-2.2307826E-2,-3.182783E-1,-2.3859574E-2,-4.294837E-2,-1.02853775E-2,-1.826072E-1,-1.3468361E-2,-7.6088905E-2,2.357769E-2,-4.283476E-3,6.1519504E-2,-6.1473627E-2,-5.8022607E-3,-4.35702E-3,6.995522E-2,7.979441E-2,1.8977138E-1,3.8902298E-2,9.939919E-2,-9.772999E-2,-4.74628E-2,-1.54785635E-2,-5.6614857E-2,-5.865741E-3,-2.467587E-2,1.2871456E-2,-5.16057E-3,4.839754E-3,2.2187924E-2,-2.0066565E-2,-6.3383104E-3,-5.6036E-3,7.853032E-3,1.0372973E-2,-1.613762E-2,1.2254906E-3,3.210354E-2,7.0526605E-3,3.061799E-2,2.5847305E-2,6.0301665E-2],"categories":[],"categories_nodes":[],"categories_segments":[],"categories_sizes":[],"default_left":[0,0,0,0,0,0,0,0,0,0,0,0,0,0,0,0,0,0,0,0,0,0,0,0,0,0,0,0,0,0,0,0,0,0,0,0,0,0,0,0,0,0,0,0,0,0,0,0,0,0,0,0,0,0,0,0,0,0,0,0,0,0,0,0,0,0,0,0,0,0,0,0,0],"id":1,"left_children":[1,3,5,7,9,11,13,15,17,19,21,23,25,27,29,-1,31,33,35,37,-1,39,41,43,45,-1,-1,47,-1,49,-1,-1,-1,51,-1,-1,-1,53,-1,55,57,-1,59,61,63,65,67,69,71,-1,-1,-1,-1,-1,-1,-1,-1,-1,-1,-1,-1,-1,-1,-1,-1,-1,-1,-1,-1,-1,-1,-1,-1],"loss_changes":[2.1384626E1,2.4149714E0,3.4597864E0,5.734558E-1,2.1441956E-1,2.809673E-1,5.519209E-1,2.865553E-1,1.1624098E-1,2.1213919E-2,3.9394286E-2,5.38679E-2,3.471911E-3,2.7076936E-1,4.6726227E-2,0E0,1.3682246E-2,1.2158871E-2,2.4182498E-3,2.0227432E-2,0E0,2.3538576E-2,1.0699838E-2,1.4913719E-2,3.4282602E-2,0E0,0E0,2.8664052E-2,0E0,3.9592505E-2,0E0,0E0,0E0,3.5982132E-3,0E0,0E0,0E0,1.4680624E-3,0E0,8.3118305E-4,3.8906606E-3,0E0,3.3238437E-3,1.4269054E-3,4.1949213E-3,3.0730208E-2,2.6413046E-2,5.1200576E-3,9.454191E-3,0E0,0E0,0E0,0E0,0E0,0E0,0E0,0E0,0E0,0E0,0E0,0E0,0E0,0E0,0E0,0E0,0E0,0E0,0E0,0E0,0E0,0E0,0E0,0E0],"parents":[2147483647,0,0,1,1,2,2,3,3,4,4,5,5,6,6,7,7,8,8,9,9,10,10,11,11,12,12,13,13,14,14,16,16,17,17,18,18,19,19,21,21,22,22,23,23,24,24,27,27,29,29,33,33,37,37,39,39,40,40,42,42,43,43,44,44,45,45,46,46,47,47,48,48],"right_children":[2,4,6,8,10,12,14,16,18,20,22,24,26,28,30,-1,32,34,36,38,-1,40,42,44,46,-1,-1,48,-1,50,-1,-1,-1,52,-1,-1,-1,54,-1,56,58,-1,60,62,64,66,68,70,72,-1,-1,-1,-1,-1,-1,-1,-1,-1,-1,-1,-1,-1,-1,-1,-1,-1,-1,-1,-1,-1,-1,-1,-1],"split_conditions":[3.14587E-1,2.5307557E-1,4.1827768E-1,1.370826E-1,3.3040422E-1,4.920914E-1,5.869947E-1,1.7574692E-1,2.6362038E-1,3.0579966E-1,2.460457E-1,3.3040422E-1,3.831283E-1,6.168717E-1,4.8154658E-1,-1.581329E-1,1.1950791E-1,2.8295255E-1,2.5483304E-1,2.8822497E-1,-2.0972371E-2,3.5149384E-1,3.602812E-1,3.7609842E-1,2.9876977E-1,5.7560146E-2,1.4507104E-2,2.9876977E-1,1.02438845E-1,6.168717E-1,1.2953767E-1,-9.3584634E-2,-2.2307826E-2,2.4780317E-1,-2.3859574E-2,-4.294837E-2,-1.02853775E-2,2.5483304E-1,-1.3468361E-2,3.3919156E-1,2.2144112E-1,-4.283476E-3,2.1265379E-1,3.075571E-1,3.813708E-1,2.2144112E-1,2.3550087E-1,4.5518455E-1,3.3743408E-1,3.8902298E-2,9.939919E-2,-9.772999E-2,-4.74628E-2,-1.54785635E-2,-5.6614857E-2,-5.865741E-3,-2.467587E-2,1.2871456E-2,-5.16057E-3,4.839754E-3,2.2187924E-2,-2.0066565E-2,-6.3383104E-3,-5.6036E-3,7.853032E-3,1.0372973E-2,-1.613762E-2,1.2254906E-3,3.210354E-2,7.0526605E-3,3.061799E-2,2.5847305E-2,6.0301665E-2],"split_indices":[1,4,0,0,3,2,2,5,2,0,0,3,0,0,4,0,0,0,0,2,0,2,4,1,5,0,0,3,0,1,0,0,0,4,0,0,0,4,0,3,0,0,2,4,0,5,0,0,2,0,0,0,0,0,0,0,0,0,0,0,0,0,0,0,0,0,0,0,0,0,0,0,0],"split_type":[0,0,0,0,0,0,0,0,0,0,0,0,0,0,0,0,0,0,0,0,0,0,0,0,0,0,0,0,0,0,0,0,0,0,0,0,0,0,0,0,0,0,0,0,0,0,0,0,0,0,0,0,0,0,0,0,0,0,0,0,0,0,0,0,0,0,0,0,0,0,0,0,0],"sum_hessian":[2.97E2,1.34E2,1.63E2,9.6E1,3.8E1,5.3E1,1.1E2,4.4E1,5.2E1,2E1,1.8E1,4.4E1,9E0,4.6E1,6.4E1,3.1E1,1.3E1,4.6E1,6E0,1.5E1,5E0,9E0,9E0,2E1,2.4E1,8E0,1E0,2.7E1,1.9E1,1.6E1,4.8E1,1.2E1,1E0,4.5E1,1E0,5E0,1E0,1.3E1,2E0,6E0,3E0,2E0,7E0,1.2E1,8E0,1.4E1,1E1,5E0,2.2E1,3E0,1.3E1,4.2E1,3E0,1E0,1.2E1,1E0,5E0,2E0,1E0,2E0,5E0,1E1,2E0,6E0,2E0,8E0,6E0,4E0,6E0,2E0,3E0,3E0,1.9E1],"tree_param":{"num_deleted":"0","num_feature":"6","num_nodes":"73","size_leaf_vector":"1"}},{"base_weights":[-6.62474E-4,-2.1171112E-1,1.7307064E-1,-2.8523308E-1,-7.68515E-2,5.7016455E-2,2.6554248E-1,-3.2396653E-1,-1.8189818E-1,-1.22378066E-1,8.354134E-3,6.808391E-3,1.6805136E-1,2.2182256E-1,1.0290185E-1,-3.6617872E-1,-7.670547E-2,-5.9152223E-2,-7.8304574E-2,-1.5645063E-1,-8.311106E-2,-1.1124338E-2,1.836691E-2,-2.5020853E-2,5.498589E-2,1.0185065E-1,6.100018E-2,1.7873912E-1,8.861247E-2,-1.1129533E-1,-2.969699E-2,-2.6108446E-2,-6.5115453E-3,-5.0893858E-2,-2.2335721E-2,-8.679819E-2,-3.617549E-3,8.230304E-3,-1.4282627E-2,-3.9352704E-2,2.2893786E-2,-2.7405024E-3,6.47592E-2,5.331302E-3,3.2765485E-2,1.233101E-2,1.8115243E-1,-5.0978423E-3,-2.709571E-2,1.3453961E-2,-4.160704E-3,-1.4153074E-2,-2.0139695E-3,-7.731915E-5,1.1050873E-2,-3.2680037E-3,3.257704E-3,3.1056777E-2,1.3886844E-2,1.4392162E-2,5.500115E-2],"categories":[],"categories_nodes":[],"categories_segments":[],"categories_sizes":[],"default_left":[0,0,0,0,0,0,0,0,0,0,0,0,0,0,0,0,0,0,0,0,0,0,0,0,0,0,0,0,0,0,0,0,0,0,0,0,0,0,0,0,0,0,0,0,0,0,0,0,0,0,0,0,0,0,0,0,0,0,0,0,0],"id":2,"left_children":[1,3,5,7,9,11,13,15,17,19,21,23,25,27,-1,29,-1,-1,31,33,35,37,-1,39,41,43,-1,45,-1,-1,-1,-1,-1,-1,-1,47,-1,49,-1,51,53,55,57,-1,-1,-1,59,-1,-1,-1,-1,-1,-1,-1,-1,-1,-1,-1,-1,-1,-1],"loss_changes":[1.0963151E1,1.3166237E0,1.7448659E0,2.8928995E-1,1.9109923E-1,4.113946E-1,2.3210382E-1,8.5077286E-2,2.570492E-2,2.9810935E-2,1.9217564E-2,8.111536E-2,3.301215E-2,1.4050698E-1,0E0,9.50098E-3,0E0,0E0,5.7978556E-4,4.681587E-3,3.4070015E-3,1.0277835E-2,0E0,2.2875506E-2,1.2025215E-2,4.25376E-3,0E0,6.172538E-3,0E0,0E0,0E0,0E0,0E0,0E0,0E0,2.3975968E-3,0E0,8.713914E-3,0E0,6.0677417E-3,2.5918065E-3,5.617897E-4,8.095071E-3,0E0,0E0,0E0,2.8430223E-3,0E0,0E0,0E0,0E0,0E0,0E0,0E0,0E0,0E0,0E0,0E0,0E0,0E0,0E0],"parents":[2147483647,0,0,1,1,2,2,3,3,4,4,5,5,6,6,7,7,8,8,9,9,10,10,11,11,12,12,13,13,15,15,18,18,19,19,20,20,21,21,23,23,24,24,25,25,27,27,35,35,37,37,39,39,40,40,41,41,42,42,46,46],"right_children":[2,4,6,8,10,12,14,16,18,20,22,24,26,28,-1,30,-1,-1,32,34,36,38,-1,40,42,44,-1,46,-1,-1,-1,-1,-1,-1,-1,48,-1,50,-1,52,54,56,58,-1,-1,-1,60,-1,-1,-1,-1,-1,-1,-1,-1,-1,-1,-1,-1,-1,-1],"split_conditions":[3.14587E-1,2.1968366E-1,4.7100174E-1,1.8629174E-1,3.4446397E-1,4.692443E-1,7.627416E-1,1.3532513E-1,2.688928E-1,2.5307557E-1,4.3760985E-1,3.602812E-1,5.799649E-1,7.5043935E-1,1.0290185E-1,1.7750439E-1,-7.670547E-2,-5.9152223E-2,1.6695958E-1,2.5307557E-1,3.427065E-1,2.58348E-1,1.836691E-2,3.8664323E-1,2.3022847E-1,3.2864675E-1,6.100018E-2,3.3743408E-1,8.861247E-2,-1.1129533E-1,-2.969699E-2,-2.6108446E-2,-6.5115453E-3,-5.0893858E-2,-2.2335721E-2,2.231986E-1,-3.617549E-3,3.4797892E-1,-1.4282627E-2,3.813708E-1,4.059754E-1,3.813708E-1,3.831283E-1,5.331302E-3,3.2765485E-2,1.233101E-2,3.2864675E-1,-5.0978423E-3,-2.709571E-2,1.3453961E-2,-4.160704E-3,-1.4153074E-2,-2.0139695E-3,-7.731915E-5,1.1050873E-2,-3.2680037E-3,3.257704E-3,3.1056777E-2,1.3886844E-2,1.4392162E-2,5.500115E-2],"split_indices":[0,2,2,0,2,0,0,1,4,3,2,4,0,2,0,2,0,0,2,0,1,0,0,1,3,5,0,3,0,0,0,0,0,0,0,2,0,5,0,2,2,0,4,0,0,0,0,0,0,0,0,0,0,0,0,0,0,0,0,0,0],"split_type":[0,0,0,0,0,0,0,0,0,0,0,0,0,0,0,0,0,0,0,0,0,0,0,0,0,0,0,0,0,0,0,0,0,0,0,0,0,0,0,0,0,0,0,0,0,0,0,0,0,0,0,0,0,0,0,0,0,0,0,0,0],"sum_hessian":[2.97E2,1.34E2,1.63E2,8.6E1,4.8E1,7.3E1,9E1,6.1E1,2.5E1,3.1E1,1.7E1,5.1E1,2.2E1,6E1,3E1,3.5E1,2.6E1,2.1E1,4E0,1.5E1,1.6E1,1.3E1,4E0,3.1E1,2E1,9E0,1.3E1,4E1,2E1,3.4E1,1E0,3E0,1E0,1.2E1,3E0,1.5E1,1E0,9E0,4E0,2.4E1,7E0,3E0,1.7E1,1E0,8E0,1E0,3.9E1,1E0,1.4E1,3E0,6E0,1.9E1,5E0,3E0,4E0,2E0,1E0,4E0,1.3E1,1E0,3.8E1],"tree_param":{"num_deleted":"0","num_feature":"6","num_nodes":"61","size_leaf_vector":"1"}},{"base_weights":[-4.4048871E-4,-1.511988E-1,1.2366203E-1,-2.0010875E-1,-4.8932042E-2,4.1787658E-2,1.8888226E-1,-2.568359E-1,-1.583085E-1,-8.469801E-2,4.4686417E-3,-3.1269356E-4,1.1096369E-1,1.6212602E-1,7.591012E-2,-8.368825E-2,-4.710217E-2,-1.7063217E-1,-7.636176E-2,-3.416638E-2,-6.3775934E-2,-9.84958E-3,1.3958874E-2,-1.767689E-2,3.4435242E-2,7.4563585E-2,1.5328352E-1,1.1823626E-1,6.037421E-2,-5.2836727E-2,-2.027446E-2,-2.6314199E-2,-7.3257927E-3,-6.0633663E-3,-6.7958325E-2,9.7517174E-4,-3.986144E-2,-3.6642917E-2,3.5793185E-3,5.434354E-4,4.9791206E-2,4.5315744E-3,7.7335656E-2,1.0788632E-2,4.820395E-2,8.9726254E-2,1.385937E-1,-2.639317E-2,-1.2783846E-2,1.0426819E-2,-4.2440733E-3,-1.3670397E-2,-3.4112693E-3,-1.4670266E-2,-1.8059493E-3,-2.0167949E-3,8.276453E-3,-3.7766935E-3,1.7063142E-3,2.523488E-2,5.4480825E-3,1.3040486E-2,2.5500728E-2,1.6168946E-2,3.282523E-2,2.3238888E-2,4.515797E-2],"categories":[],"categories_nodes":[],"categories_segments":[],"categories_sizes":[],"default_left":[0,0,0,0,0,0,0,0,0,0,0,0,0,0,0,0,0,0,0,0,0,0,0,0,0,0,0,0,0,0,0,0,0,0,0,0,0,0,0,0,0,0,0,0,0,0,0,0,0,0,0,0,0,0,0,0,0,0,0,0,0,0,0,0,0,0,0],"id":3,"left_children":[1,3,5,7,9,11,13,15,17,19,21,23,25,27,-1,-1,-1,29,31,-1,33,35,-1,37,39,41,43,45,-1,-1,-1,-1,-1,-1,47,49,51,53,55,57,59,-1,61,-1,-1,63,65,-1,-1,-1,-1,-1,-1,-1,-1,-1,-1,-1,-1,-1,-1,-1,-1,-1,-1,-1,-1],"loss_changes":[5.5941243E0,6.6545963E-1,8.678453E-1,1.7512059E-1,8.6325206E-2,2.1554747E-1,1.1517382E-1,3.792286E-2,4.2513847E-2,9.225965E-3,1.1900815E-2,2.8967096E-2,3.1703115E-2,9.124601E-2,0E0,0E0,0E0,1.468873E-2,3.1650513E-3,0E0,1.906164E-3,4.911936E-3,0E0,1.3031823E-2,8.3000045E-3,1.6338155E-3,4.634559E-3,7.297784E-3,0E0,0E0,0E0,0E0,0E0,0E0,4.3692663E-3,6.6217403E-3,1.3218168E-4,6.0870294E-3,4.1428814E-3,4.7694324E-4,1.0415496E-2,0E0,4.595369E-4,0E0,0E0,6.096795E-3,1.4701486E-3,0E0,0E0,0E0,0E0,0E0,0E0,0E0,0E0,0E0,0E0,0E0,0E0,0E0,0E0,0E0,0E0,0E0,0E0,0E0,0E0],"parents":[2147483647,0,0,1,1,2,2,3,3,4,4,5,5,6,6,7,7,8,8,9,9,10,10,11,11,12,12,13,13,17,17,18,18,20,20,21,21,23,23,24,24,25,25,26,26,27,27,34,34,35,35,36,36,37,37,38,38,39,39,40,40,42,42,45,45,46,46],"right_children":[2,4,6,8,10,12,14,16,18,20,22,24,26,28,-1,-1,-1,30,32,-1,34,36,-1,38,40,42,44,46,-1,-1,-1,-1,-1,-1,48,50,52,54,56,58,60,-1,62,-1,-1,64,66,-1,-1,-1,-1,-1,-1,-1,-1,-1,-1,-1,-1,-1,-1,-1,-1,-1,-1,-1,-1],"split_conditions":[3.14587E-1,2.3022847E-1,4.7100174E-1,1.370826E-1,3.3040422E-1,4.56942E-1,7.820738E-1,1.7574692E-1,2.3550087E-1,1.5289983E-1,4.3760985E-1,3.602812E-1,6.168717E-1,6.977153E-1,7.591012E-2,-8.368825E-2,-4.710217E-2,2.688928E-1,2.6010546E-1,-3.416638E-2,1.2478032E-1,2.58348E-1,1.3958874E-2,3.602812E-1,2.58348E-1,3.2864675E-1,3.4622145E-1,5.659051E-1,6.037421E-2,-5.2836727E-2,-2.027446E-2,-2.6314199E-2,-7.3257927E-3,-6.0633663E-3,2.4956064E-1,3.4797892E-1,3.0052724E-1,3.602812E-1,4.059754E-1,3.7609842E-1,4.1476274E-1,4.5315744E-3,3.3743408E-1,1.0788632E-2,4.820395E-2,4.7803164E-1,5.5711776E-1,-2.639317E-2,-1.2783846E-2,1.0426819E-2,-4.2440733E-3,-1.3670397E-2,-3.4112693E-3,-1.4670266E-2,-1.8059493E-3,-2.0167949E-3,8.276453E-3,-3.7766935E-3,1.7063142E-3,2.523488E-2,5.4480825E-3,1.3040486E-2,2.5500728E-2,1.6168946E-2,3.282523E-2,2.3238888E-2,4.515797E-2],"split_indices":[0,3,2,5,2,0,0,3,2,0,2,4,0,3,0,0,0,5,0,0,1,0,0,1,2,5,1,0,0,0,0,0,0,0,5,5,0,0,1,0,4,0,1,0,0,5,1,0,0,0,0,0,0,0,0,0,0,0,0,0,0,0,0,0,0,0,0],"split_type":[0,0,0,0,0,0,0,0,0,0,0,0,0,0,0,0,0,0,0,0,0,0,0,0,0,0,0,0,0,0,0,0,0,0,0,0,0,0,0,0,0,0,0,0,0,0,0,0,0,0,0,0,0,0,0,0,0,0,0,0,0,0,0,0,0,0,0],"sum_hessian":[2.97E2,1.34E2,1.63E2,9E1,4.4E1,7.3E1,9E1,3.6E1,5.4E1,2.6E1,1.8E1,4.6E1,2.7E1,6.6E1,2.4E1,2.8E1,8E0,4.6E1,8E0,9E0,1.7E1,1.4E1,4E0,3.1E1,1.5E1,1.6E1,1.1E1,3.3E1,3.3E1,4.3E1,3E0,6E0,2E0,2E0,1.5E1,1.1E1,3E0,1.6E1,1.5E1,5E0,1E1,1E0,1.5E1,1E0,1E1,1.6E1,1.7E1,7E0,8E0,3E0,8E0,2E0,1E0,1.1E1,5E0,1.1E1,4E0,1E0,4E0,4E0,6E0,4E0,1.1E1,7E0,9E0,4E0,1.3E1],"tree_param":{"num_deleted":"0","num_feature":"6","num_nodes":"67","size_leaf_vector":"1"}},{"base_weights":[-1.06144274E-4,-9.877563E-2,9.7906254E-2,-1.464018E-1,-3.4975633E-2,3.961285E-2,1.3741507E-1,-1.6906542E-1,-8.847031E-2,-6.533441E-2,4.964039E-3,1.1178273E-2,9.080397E-2,1.1769448E-1,5.8700316E-2,-6.0359668E-2,-3.9067596E-2,-3.7811298E-2,-6.477162E-2,-8.082535E-2,-4.6404812E-2,-9.87834E-3,3.9044697E-2,-6.1075687E-3,2.638457E-2,1.8953482E-2,9.7041346E-2,9.263861E-2,1.5557002E-1,-6.7749865E-2,-2.121234E-3,-3.670335E-3,-8.395627E-2,-6.3706758E-3,-4.979682E-2,4.956309E-3,-4.0255684E-2,2.7861358E-3,1.2481052E-2,-1.326828E-2,1.2812138E-2,-4.608214E-3,3.378439E-2,1.3919593E-3,7.137108E-3,5.6241276E-3,3.0052623E-2,7.9159044E-2,4.3020543E-2,3.3757992E-2,5.2631766E-2,-7.829285E-3,-2.1469098E-2,-2.7247373E-2,-1.11633185E-2,-1.5960697E-2,-5.19166E-3,-6.069129E-3,7.1985885E-3,-1.967001E-2,-5.105381E-3,-6.3449726E-3,-1.6991616E-3,7.334233E-4,4.3190005E-3,2.2591496E-2,7.340973E-3,2.5177276E-2,1.2165428E-2],"categories":[],"categories_nodes":[],"categories_segments":[],"categories_sizes":[],"default_left":[0,0,0,0,0,0,0,0,0,0,0,0,0,0,0,0,0,0,0,0,0,0,0,0,0,0,0,0,0,0,0,0,0,0,0,0,0,0,0,0,0,0,0,0,0,0,0,0,0,0,0,0,0,0,0,0,0,0,0,0,0,0,0,0,0,0,0,0,0],"id":4,"left_children":[1,3,5,7,9,11,13,15,17,19,21,23,25,27,-1,-1,-1,-1,29,31,33,35,37,39,41,43,45,47,49,51,-1,-1,53,-1,55,57,59,-1,-1,61,63,-1,65,-1,-1,-1,-1,67,-1,-1,-1,-1,-1,-1,-1,-1,-1,-1,-1,-1,-1,-1,-1,-1,-1,-1,-1,-1,-1],"loss_changes":[2.891579E0,4.4762325E-1,3.400222E-1,9.6642494E-2,7.9138115E-2,8.923202E-2,7.921207E-2,4.868281E-2,1.4984041E-2,7.099077E-3,1.5055002E-2,1.0938145E-2,8.020222E-3,5.1069617E-2,0E0,0E0,0E0,0E0,2.6142076E-3,3.0531362E-3,5.64646E-4,9.662902E-3,2.9891916E-4,2.879566E-3,7.3149176E-3,9.7315526E-5,3.02957E-3,1.8756181E-2,2.4946332E-3,8.328557E-4,0E0,0E0,2.3993999E-3,0E0,8.496903E-4,7.678384E-3,3.0013872E-3,0E0,0E0,7.792362E-4,6.336847E-5,0E0,5.505409E-3,0E0,0E0,0E0,0E0,3.403768E-3,0E0,0E0,0E0,0E0,0E0,0E0,0E0,0E0,0E0,0E0,0E0,0E0,0E0,0E0,0E0,0E0,0E0,0E0,0E0,0E0,0E0],"parents":[2147483647,0,0,1,1,2,2,3,3,4,4,5,5,6,6,7,7,8,8,9,9,10,10,11,11,12,12,13,13,18,18,19,19,20,20,21,21,22,22,23,23,24,24,25,25,26,26,27,27,28,28,29,29,32,32,34,34,35,35,36,36,39,39,40,40,42,42,47,47],"right_children":[2,4,6,8,10,12,14,16,18,20,22,24,26,28,-1,-1,-1,-1,30,32,34,36,38,40,42,44,46,48,50,52,-1,-1,54,-1,56,58,60,-1,-1,62,64,-1,66,-1,-1,-1,-1,68,-1,-1,-1,-1,-1,-1,-1,-1,-1,-1,-1,-1,-1,-1,-1,-1,-1,-1,-1,-1,-1],"split_conditions":[3.4446397E-1,2.1265379E-1,5.0087875E-1,1.8629174E-1,3.3040422E-1,4.6748683E-1,7.680141E-1,1.3532513E-1,1.00175746E-1,2.5307557E-1,4.463972E-1,3.0052724E-1,4.7100174E-1,7.3110723E-1,5.8700316E-2,-6.0359668E-2,-3.9067596E-2,-3.7811298E-2,2.8119507E-1,1.1950791E-1,2.6362038E-1,3.9367312E-1,2.1265379E-1,3.9367312E-1,1.7047451E-1,3.602812E-1,2.970123E-1,7.3110723E-1,6.414763E-1,1.1950791E-1,-2.121234E-3,-3.670335E-3,2.5483304E-1,-6.3706758E-3,3.532513E-1,3.0579966E-1,2.58348E-1,2.7861358E-3,1.2481052E-2,3.602812E-1,4.059754E-1,-4.608214E-3,3.497364E-1,1.3919593E-3,7.137108E-3,5.6241276E-3,3.0052623E-2,6.9595784E-1,4.3020543E-2,3.3757992E-2,5.2631766E-2,-7.829285E-3,-2.1469098E-2,-2.7247373E-2,-1.11633185E-2,-1.5960697E-2,-5.19166E-3,-6.069129E-3,7.1985885E-3,-1.967001E-2,-5.105381E-3,-6.3449726E-3,-1.6991616E-3,7.334233E-4,4.3190005E-3,2.2591496E-2,7.340973E-3,2.5177276E-2,1.2165428E-2],"split_indices":[0,3,0,1,2,3,3,3,3,4,3,3,4,0,0,0,0,0,0,1,4,4,1,0,5,0,2,2,5,3,0,0,1,0,3,4,5,0,0,0,1,0,0,0,0,0,0,3,0,0,0,0,0,0,0,0,0,0,0,0,0,0,0,0,0,0,0,0,0],"split_type":[0,0,0,0,0,0,0,0,0,0,0,0,0,0,0,0,0,0,0,0,0,0,0,0,0,0,0,0,0,0,0,0,0,0,0,0,0,0,0,0,0,0,0,0,0,0,0,0,0,0,0,0,0,0,0,0,0,0,0,0,0,0,0,0,0,0,0,0,0],"sum_hessian":[2.97E2,1.48E2,1.49E2,8.4E1,6.4E1,6.1E1,8.8E1,5.9E1,2.5E1,3.6E1,2.8E1,4E1,2.1E1,6.8E1,2E1,3E1,2.9E1,8E0,1.7E1,1.8E1,1.8E1,2E1,8E0,1.9E1,2.1E1,2E0,1.9E1,4.3E1,2.5E1,1.6E1,1E0,1E0,1.7E1,3E0,1.5E1,1.4E1,6E0,1E0,7E0,1.4E1,5E0,3E0,1.8E1,1E0,1E0,1E0,1.8E1,3.6E1,7E0,1E1,1.5E1,2E0,1.4E1,1.4E1,3E0,1.3E1,2E0,6E0,8E0,2E0,4E0,6E0,8E0,1E0,4E0,2E0,1.6E1,3.1E1,5E0],"tree_param":{"num_deleted":"0","num_feature":"6","num_nodes":"69","size_leaf_vector":"1"}},{"base_weights":[7.784767E-5,-7.079827E-2,7.0480935E-2,-1.0770306E-1,-2.7609961E-2,3.578153E-2,1.0659152E-1,-1.2728527E-1,-6.4549625E-2,-5.062083E-2,-2.7592978E-4,1.5174186E-2,7.886213E-2,9.386927E-2,5.092957E-2,-1.4175296E-1,-9.560256E-2,-7.644425E-2,-3.6684323E-2,-6.1594054E-2,-3.3442497E-2,-1.0814133E-2,2.9027514E-2,-3.4347447E-4,2.5059469E-2,8.646309E-2,1.7341375E-2,8.295548E-2,1.5013473E-1,-4.3102726E-2,-1.1456752E-2,-2.9779779E-2,-3.899789E-3,-2.0011583E-2,-8.2247615E-2,-3.9263513E-2,-2.0207406E-3,-6.8276405E-2,-3.2395046E-2,-2.1457672E-5,-3.5523713E-2,-6.60234E-4,-3.2308638E-2,3.193617E-3,9.827634E-3,-9.824244E-3,1.7475903E-2,2.7675673E-2,-8.798862E-3,6.4200885E-3,9.189935E-2,6.3770297E-3,8.392811E-4,4.3333056E-3,8.395672E-2,4.8048023E-2,1.0489798E-2,-9.336091E-3,3.3087732E-4,-5.56047E-3,-2.5577841E-2,-4.867792E-3,-1.3058302E-2,-6.587744E-3,-2.1896431E-2,-5.1903967E-3,-1.2516499E-2,-1.1127186E-2,-1.8030168E-3,-3.0276587E-3,1.0462403E-2,-1.5736008E-2,-5.0554518E-3,-6.476784E-3,-1.9060576E-3,2.484627E-3,7.3797586E-3,-3.5713792E-3,9.654207E-3,3.0032856E-2,1.0209382E-2,1.1003602E-2,2.580558E-2],"categories":[],"categories_nodes":[],"categories_segments":[],"categories_sizes":[],"default_left":[0,0,0,0,0,0,0,0,0,0,0,0,0,0,0,0,0,0,0,0,0,0,0,0,0,0,0,0,0,0,0,0,0,0,0,0,0,0,0,0,0,0,0,0,0,0,0,0,0,0,0,0,0,0,0,0,0,0,0,0,0,0,0,0,0,0,0,0,0,0,0,0,0,0,0,0,0,0,0,0,0,0,0],"id":5,"left_children":[1,3,5,7,9,11,13,15,17,19,21,23,25,27,-1,29,31,33,35,37,39,41,43,45,47,49,51,53,55,-1,-1,-1,-1,57,59,61,-1,63,65,-1,67,69,71,-1,-1,73,75,77,-1,-1,79,-1,-1,-1,81,-1,-1,-1,-1,-1,-1,-1,-1,-1,-1,-1,-1,-1,-1,-1,-1,-1,-1,-1,-1,-1,-1,-1,-1,-1,-1,-1,-1],"loss_changes":[1.4919795E0,2.3451084E-1,1.8413842E-1,5.938691E-2,4.4014618E-2,6.804992E-2,4.273522E-2,1.1200368E-2,6.1447695E-3,5.1032007E-3,1.05044935E-2,8.292016E-3,1.0191008E-2,2.6231825E-2,0E0,1.4826655E-3,4.7617406E-3,4.2490885E-3,5.0795823E-4,2.0807907E-3,1.1781454E-3,5.4349946E-3,2.6856782E-4,3.8883986E-3,5.507376E-3,5.8147013E-3,1.6831013E-4,2.560109E-3,4.7912896E-3,0E0,0E0,0E0,0E0,7.379886E-4,1.4900118E-3,1.7784256E-4,0E0,2.1071956E-3,1.2280094E-4,0E0,5.170051E-4,6.384912E-3,1.6071191E-3,0E0,0E0,4.75329E-4,3.2018893E-4,6.0890056E-3,0E0,0E0,6.0952753E-3,0E0,0E0,0E0,2.1089315E-3,0E0,0E0,0E0,0E0,0E0,0E0,0E0,0E0,0E0,0E0,0E0,0E0,0E0,0E0,0E0,0E0,0E0,0E0,0E0,0E0,0E0,0E0,0E0,0E0,0E0,0E0,0E0,0E0],"parents":[2147483647,0,0,1,1,2,2,3,3,4,4,5,5,6,6,7,7,8,8,9,9,10,10,11,11,12,12,13,13,15,15,16,16,17,17,18,18,19,19,20,20,21,21,22,22,23,23,24,24,25,25,26,26,27,27,28,28,33,33,34,34,35,35,37,37,38,38,40,40,41,41,42,42,45,45,46,46,47,47,50,50,54,54],"right_children":[2,4,6,8,10,12,14,16,18,20,22,24,26,28,-1,30,32,34,36,38,40,42,44,46,48,50,52,54,56,-1,-1,-1,-1,58,60,62,-1,64,66,-1,68,70,72,-1,-1,74,76,78,-1,-1,80,-1,-1,-1,82,-1,-1,-1,-1,-1,-1,-1,-1,-1,-1,-1,-1,-1,-1,-1,-1,-1,-1,-1,-1,-1,-1,-1,-1,-1,-1,-1,-1],"split_conditions":[3.4446397E-1,2.0210896E-1,5.799649E-1,1.8101934E-1,3.1810194E-1,5.5711776E-1,9.0509665E-1,1.3532513E-1,1.9683656E-1,1.9507909E-1,4.463972E-1,3.0052724E-1,5.5008787E-1,9.0509665E-1,5.092957E-2,1.6695958E-1,2.2671354E-1,1.142355E-1,3.14587E-1,1.9859402E-1,2.231986E-1,3.9367312E-1,2.58348E-1,3.9367312E-1,5.940246E-1,5.096661E-1,5.588752E-1,1.8804921E-1,1E0,-4.3102726E-2,-1.1456752E-2,-2.9779779E-2,-3.899789E-3,6.85413E-2,8.611599E-2,1.9507909E-1,-2.0207406E-3,1.4411248E-1,1.5992971E-1,-2.1457672E-5,3.4446397E-1,3.813708E-1,2.58348E-1,3.193617E-3,9.827634E-3,1.5992971E-1,4.622144E-1,1.7047451E-1,-8.798862E-3,6.4200885E-3,8.5588753E-1,6.3770297E-3,8.392811E-4,4.3333056E-3,3.5852373E-1,4.8048023E-2,1.0489798E-2,-9.336091E-3,3.3087732E-4,-5.56047E-3,-2.5577841E-2,-4.867792E-3,-1.3058302E-2,-6.587744E-3,-2.1896431E-2,-5.1903967E-3,-1.2516499E-2,-1.1127186E-2,-1.8030168E-3,-3.0276587E-3,1.0462403E-2,-1.5736008E-2,-5.0554518E-3,-6.476784E-3,-1.9060576E-3,2.484627E-3,7.3797586E-3,-3.5713792E-3,9.654207E-3,3.0032856E-2,1.0209382E-2,1.1003602E-2,2.580558E-2],"split_indices":[0,5,0,3,3,2,0,1,0,2,3,3,0,4,0,2,4,1,1,1,2,4,0,0,3,3,0,5,4,0,0,0,0,0,0,1,0,4,2,0,2,4,5,0,0,3,1,5,0,0,3,0,0,0,2,0,0,0,0,0,0,0,0,0,0,0,0,0,0,0,0,0,0,0,0,0,0,0,0,0,0,0,0],"split_type":[0,0,0,0,0,0,0,0,0,0,0,0,0,0,0,0,0,0,0,0,0,0,0,0,0,0,0,0,0,0,0,0,0,0,0,0,0,0,0,0,0,0,0,0,0,0,0,0,0,0,0,0,0,0,0,0,0,0,0,0,0,0,0,0,0,0,0,0,0,0,0,0,0,0,0,0,0,0,0,0,0,0,0],"sum_hessian":[2.97E2,1.48E2,1.49E2,7.9E1,6.9E1,7.7E1,7.2E1,5.3E1,2.6E1,3.7E1,3.2E1,5.3E1,2.4E1,6.2E1,1E1,3.4E1,1.9E1,1.7E1,9E0,2.1E1,1.6E1,2.4E1,8E0,2.1E1,3.2E1,2.1E1,3E0,5.4E1,8E0,3.3E1,1E0,1.8E1,1E0,2E0,1.5E1,8E0,1E0,1.6E1,5E0,1E0,1.5E1,1.7E1,7E0,2E0,6E0,1.4E1,7E0,3.1E1,1E0,2E0,1.9E1,2E0,1E0,1E0,5.3E1,7E0,1E0,1E0,1E0,1E0,1.4E1,2E0,6E0,2E0,1.4E1,3E0,2E0,1.4E1,1E0,1.4E1,3E0,2E0,5E0,2E0,1.2E1,4E0,3E0,3E0,2.8E1,1.6E1,3E0,3E0,5E1],"tree_param":{"num_deleted":"0","num_feature":"6","num_nodes":"83","size_leaf_vector":"1"}},{"base_weights":[3.9225455E-5,-5.3251974E-2,4.888924E-2,-7.73462E-2,-2.2302128E-2,1.6659997E-2,7.172705E-2,-9.018216E-2,-4.54998E-2,-3.3254087E-2,9.932939E-3,4.1125296E-3,4.1567996E-2,6.343243E-2,3.7885483E-2,-1.0225315E-1,-6.519465E-2,-1.9160906E-2,-3.309811E-2,-5.0302282E-2,-2.4754763E-2,-3.2966614E-3,7.5684967E-3,-5.1256265E-3,1.31718805E-2,2.408557E-2,5.1818483E-2,5.080193E-2,8.969269E-2,-3.2458723E-2,-6.217732E-2,8.6331373E-4,-6.8742156E-2,-4.685243E-3,-3.657414E-2,-8.086383E-2,-3.5923243E-2,-3.5302784E-2,-1.7396623E-2,-7.7032363E-3,5.23901E-3,1.1811852E-2,-2.163597E-2,-1.1257172E-3,2.2443602E-2,8.087397E-3,-2.6493074E-4,2.6103318E-2,2.6509443E-2,3.9502442E-2,6.578802E-2,4.927917E-2,1.1334976E-1,-4.620481E-3,-2.02219E-2,-2.1359118E-2,-3.314853E-3,2.8123858E-4,-2.389598E-3,-6.0588457E-3,-1.2208128E-2,-2.8311111E-2,-6.051636E-3,-1.3578415E-3,-1.1509817E-2,-4.3728235E-3,-1.2018958E-2,-2.4428687E-3,-6.63085E-3,-3.8313866E-4,-3.0054762E-3,1.3997556E-4,2.002287E-3,1.809597E-4,1.3571025E-2,2.3779871E-3,-8.5023455E-3,-4.722948E-3,3.3729316E-3,1.2889504E-2,1.8806775E-3,8.702285E-3,9.786129E-4,1.27247665E-2,1.8957854E-3,3.9778235E-3,2.0271895E-2,6.2877564E-3,1.8740354E-2,9.026099E-3,3.514441E-2],"categories":[],"categories_nodes":[],"categories_segments":[],"categories_sizes":[],"default_left":[0,0,0,0,0,0,0,0,0,0,0,0,0,0,0,0,0,0,0,0,0,0,0,0,0,0,0,0,0,0,0,0,0,0,0,0,0,0,0,0,0,0,0,0,0,0,0,0,0,0,0,0,0,0,0,0,0,0,0,0,0,0,0,0,0,0,0,0,0,0,0,0,0,0,0,0,0,0,0,0,0,0,0,0,0,0,0,0,0,0,0],"id":6,"left_children":[1,3,5,7,9,11,13,15,17,19,21,23,25,27,-1,29,31,-1,33,35,37,39,-1,41,43,45,47,49,51,-1,53,-1,55,57,59,61,63,65,67,69,71,73,75,77,79,-1,-1,-1,81,83,85,87,89,-1,-1,-1,-1,-1,-1,-1,-1,-1,-1,-1,-1,-1,-1,-1,-1,-1,-1,-1,-1,-1,-1,-1,-1,-1,-1,-1,-1,-1,-1,-1,-1,-1,-1,-1,-1,-1,-1],"loss_changes":[7.783796E-1,1.0491192E-1,1.1362812E-1,2.8599083E-2,2.2924688E-2,2.0456182E-2,3.3170253E-2,1.0224551E-2,3.5814717E-3,5.7098903E-3,3.52315E-3,3.8336404E-3,2.6943982E-3,2.2309572E-2,0E0,1.8462539E-3,5.269043E-3,0E0,1.5076287E-3,3.6867969E-3,2.0247195E-3,4.164881E-4,0E0,6.687363E-3,3.0742218E-3,7.410119E-4,9.272356E-3,7.0533007E-3,1.8315852E-2,0E0,6.7397207E-4,0E0,2.045907E-3,6.279601E-5,1.902096E-4,1.3752878E-3,7.4671954E-4,6.987136E-4,7.7811815E-4,9.134121E-5,2.4284942E-5,4.4684904E-3,2.6033204E-3,1.9850074E-3,4.3776366E-3,0E0,0E0,0E0,4.2805914E-4,3.1156652E-3,1.2605414E-3,2.7992558E-3,1.2191832E-3,0E0,0E0,0E0,0E0,0E0,0E0,0E0,0E0,0E0,0E0,0E0,0E0,0E0,0E0,0E0,0E0,0E0,0E0,0E0,0E0,0E0,0E0,0E0,0E0,0E0,0E0,0E0,0E0,0E0,0E0,0E0,0E0,0E0,0E0,0E0,0E0,0E0,0E0],"parents":[2147483647,0,0,1,1,2,2,3,3,4,4,5,5,6,6,7,7,8,8,9,9,10,10,11,11,12,12,13,13,15,15,16,16,18,18,19,19,20,20,21,21,23,23,24,24,25,25,26,26,27,27,28,28,30,30,32,32,33,33,34,34,35,35,36,36,37,37,38,38,39,39,40,40,41,41,42,42,43,43,44,44,48,48,49,49,50,50,51,51,52,52],"right_children":[2,4,6,8,10,12,14,16,18,20,22,24,26,28,-1,30,32,-1,34,36,38,40,-1,42,44,46,48,50,52,-1,54,-1,56,58,60,62,64,66,68,70,72,74,76,78,80,-1,-1,-1,82,84,86,88,90,-1,-1,-1,-1,-1,-1,-1,-1,-1,-1,-1,-1,-1,-1,-1,-1,-1,-1,-1,-1,-1,-1,-1,-1,-1,-1,-1,-1,-1,-1,-1,-1,-1,-1,-1,-1,-1,-1],"split_conditions":[3.3040422E-1,2.0210896E-1,4.7803164E-1,1.8629174E-1,3.7609842E-1,4.920914E-1,9.0509665E-1,1.3532513E-1,1.00175746E-1,1.5289983E-1,4.56942E-1,3.3743408E-1,3.602812E-1,7.469244E-1,3.7885483E-2,1.4586994E-1,1.370826E-1,-1.9160906E-2,1.1950791E-1,1.4586994E-1,2.0738137E-1,3.6379614E-1,7.5684967E-3,2.2144112E-1,2.460457E-1,3.5852373E-1,4.5518455E-1,7.012302E-1,6.3268894E-1,-3.2458723E-2,4.042179E-2,8.6331373E-4,2.2671354E-1,1.1950791E-1,1.3884006E-1,2.5307557E-1,8.963093E-2,1.2478032E-1,2.6010546E-1,2.0913884E-1,3.813708E-1,3.9367312E-1,2.1616872E-1,3.5149384E-1,3.497364E-1,8.087397E-3,-2.6493074E-4,2.6103318E-2,4.5869946E-1,7.135325E-1,4.463972E-1,8.400703E-1,4.8154658E-1,-4.620481E-3,-2.02219E-2,-2.1359118E-2,-3.314853E-3,2.8123858E-4,-2.389598E-3,-6.0588457E-3,-1.2208128E-2,-2.8311111E-2,-6.051636E-3,-1.3578415E-3,-1.1509817E-2,-4.3728235E-3,-1.2018958E-2,-2.4428687E-3,-6.63085E-3,-3.8313866E-4,-3.0054762E-3,1.3997556E-4,2.002287E-3,1.809597E-4,1.3571025E-2,2.3779871E-3,-8.5023455E-3,-4.722948E-3,3.3729316E-3,1.2889504E-2,1.8806775E-3,8.702285E-3,9.786129E-4,1.27247665E-2,1.8957854E-3,3.9778235E-3,2.0271895E-2,6.2877564E-3,1.8740354E-2,9.026099E-3,3.514441E-2],"split_indices":[2,5,0,3,0,3,1,0,5,0,0,5,0,3,0,3,0,0,1,2,3,1,0,5,0,0,1,0,5,0,0,0,4,0,5,5,1,3,3,2,0,2,0,2,0,0,0,0,0,3,1,2,0,0,0,0,0,0,0,0,0,0,0,0,0,0,0,0,0,0,0,0,0,0,0,0,0,0,0,0,0,0,0,0,0,0,0,0,0,0,0],"split_type":[0,0,0,0,0,0,0,0,0,0,0,0,0,0,0,0,0,0,0,0,0,0,0,0,0,0,0,0,0,0,0,0,0,0,0,0,0,0,0,0,0,0,0,0,0,0,0,0,0,0,0,0,0,0,0,0,0,0,0,0,0,0,0,0,0,0,0,0,0,0,0,0,0,0,0,0,0,0,0,0,0,0,0,0,0,0,0,0,0,0,0],"sum_hessian":[2.97E2,1.42E2,1.55E2,7.9E1,6.3E1,6.5E1,9E1,5.5E1,2.4E1,4.7E1,1.6E1,4.4E1,2.1E1,8E1,1E1,3.5E1,2E1,8E0,1.6E1,1.4E1,3.3E1,9E0,7E0,2.2E1,2.2E1,9E0,1.2E1,5.6E1,2.4E1,2.9E1,6E0,1E0,1.9E1,2E0,1.4E1,3E0,1.1E1,1.2E1,2.1E1,6E0,3E0,1.1E1,1.1E1,9E0,1.3E1,8E0,1E0,4E0,8E0,3.4E1,2.2E1,1E1,1.4E1,1E0,5E0,1.8E1,1E0,1E0,1E0,4E0,1E1,2E0,1E0,1E0,1E1,3E0,9E0,8E0,1.3E1,2E0,4E0,1E0,2E0,9E0,2E0,2E0,9E0,4E0,5E0,5E0,8E0,7E0,1E0,3.1E1,3E0,1E0,2.1E1,4E0,6E0,1E0,1.3E1],"tree_param":{"num_deleted":"0","num_feature":"6","num_nodes":"91","size_leaf_vector":"1"}},{"base_weights":[1.065539E-4,-4.0448852E-2,3.4402754E-2,-5.1940355E-2,-9.143616E-3,1.5939351E-2,5.7260625E-2,-8.2326226E-2,-4.472486E-2,-1.4271244E-2,1.5603201E-2,9.937895E-4,3.1194951E-2,5.104971E-2,1.00566745E-1,-2.7424755E-2,-1.2123013E-2,-7.469316E-2,-3.959642E-2,-1.7813189E-2,8.417892E-3,7.3606614E-3,2.7700663E-3,1.4462972E-2,-1.0806893E-3,1.8756185E-2,4.0395718E-2,3.654825E-2,6.1716214E-2,3.2447763E-2,7.1129324E-3,-2.8198243E-3,-8.028259E-2,-6.467323E-2,-3.5059474E-2,1.8597365E-3,-1.893213E-2,3.3688546E-5,3.1398656E-3,-4.782041E-3,3.8139583E-3,-7.819964E-3,5.4228106E-3,2.12876E-2,2.6757717E-3,4.3979917E-2,1.7262936E-2,1.9750493E-2,4.82318E-2,3.4453426E-2,7.562764E-2,-2.5671436E-2,-4.9024345E-3,-1.574278E-4,-2.152276E-2,7.6051713E-3,-1.0926227E-2,-7.5163106E-3,-4.1571087E-3,-2.1076442E-3,-4.4274333E-5,-6.2011452E-3,-6.205727E-4,7.6543097E-3,4.0128574E-4,3.175664E-3,7.3768506E-3,1.3875008E-3,-4.7578814E-4,1.3625215E-2,2.2845985E-3,-1.6262055E-3,7.2867037E-3,1.6305638E-2,2.8362633E-3,1.653963E-2,6.1934E-3,1.6496887E-2,6.221995E-3,2.3604346E-2,8.71315E-3],"categories":[],"categories_nodes":[],"categories_segments":[],"categories_sizes":[],"default_left":[0,0,0,0,0,0,0,0,0,0,0,0,0,0,0,0,0,0,0,0,0,0,0,0,0,0,0,0,0,0,0,0,0,0,0,0,0,0,0,0,0,0,0,0,0,0,0,0,0,0,0,0,0,0,0,0,0,0,0,0,0,0,0,0,0,0,0,0,0,0,0,0,0,0,0,0,0,0,0,0,0],"id":7,"left_children":[1,3,5,7,9,11,13,15,17,19,21,23,25,27,29,-1,-1,31,33,35,37,-1,39,-1,41,43,45,47,49,-1,-1,-1,51,53,55,-1,57,-1,-1,59,-1,61,63,65,67,69,71,73,75,77,79,-1,-1,-1,-1,-1,-1,-1,-1,-1,-1,-1,-1,-1,-1,-1,-1,-1,-1,-1,-1,-1,-1,-1,-1,-1,-1,-1,-1,-1,-1],"loss_changes":[4.1587865E-1,4.881002E-2,6.745683E-2,1.8242896E-2,5.0445916E-3,2.071732E-2,1.423198E-2,3.1639263E-3,9.798735E-3,2.7215867E-3,7.344441E-4,4.655695E-3,4.392404E-3,7.7985674E-3,2.1038353E-3,0E0,0E0,3.2598935E-3,6.037958E-3,8.6967833E-4,8.388754E-5,0E0,3.6116128E-4,0E0,2.0585342E-3,7.978692E-4,1.3135932E-3,4.935123E-3,1.104787E-2,0E0,0E0,0E0,1.9833967E-3,4.497204E-3,6.1863214E-3,0E0,4.917374E-4,0E0,0E0,3.0154559E-5,0E0,1.6571326E-3,1.9357398E-3,3.7577562E-4,4.0563467E-5,7.518567E-4,9.2854735E-4,4.473898E-3,2.097927E-3,2.802223E-3,9.864271E-4,0E0,0E0,0E0,0E0,0E0,0E0,0E0,0E0,0E0,0E0,0E0,0E0,0E0,0E0,0E0,0E0,0E0,0E0,0E0,0E0,0E0,0E0,0E0,0E0,0E0,0E0,0E0,0E0,0E0,0E0],"parents":[2147483647,0,0,1,1,2,2,3,3,4,4,5,5,6,6,7,7,8,8,9,9,10,10,11,11,12,12,13,13,14,14,17,17,18,18,19,19,20,20,22,22,24,24,25,25,26,26,27,27,28,28,32,32,33,33,34,34,36,36,39,39,41,41,42,42,43,43,44,44,45,45,46,46,47,47,48,48,49,49,50,50],"right_children":[2,4,6,8,10,12,14,16,18,20,22,24,26,28,30,-1,-1,32,34,36,38,-1,40,-1,42,44,46,48,50,-1,-1,-1,52,54,56,-1,58,-1,-1,60,-1,62,64,66,68,70,72,74,76,78,80,-1,-1,-1,-1,-1,-1,-1,-1,-1,-1,-1,-1,-1,-1,-1,-1,-1,-1,-1,-1,-1,-1,-1,-1,-1,-1,-1,-1,-1,-1],"split_conditions":[3.1810194E-1,2.58348E-1,5.799649E-1,8.2601056E-2,3.5149384E-1,4.463972E-1,9.0509665E-1,1.6344464E-1,7.381371E-2,4.463972E-1,4.1476274E-1,3.1985942E-1,5.799649E-1,6.344464E-1,9.718805E-1,-2.7424755E-2,-1.2123013E-2,8.611599E-2,8.435852E-2,1.2478032E-1,4.56942E-1,7.3606614E-3,2.58348E-1,1.4462972E-2,3.3040422E-1,5.3954303E-1,5.2899826E-1,6.432337E-1,4.8154658E-1,3.2447763E-2,7.1129324E-3,-2.8198243E-3,1.4586994E-1,8.611599E-2,8.611599E-2,1.8597365E-3,1.9859402E-1,3.3688546E-5,3.1398656E-3,2.460457E-1,3.8139583E-3,3.3040422E-1,2.2144112E-1,2.970123E-1,5.096661E-1,8.5061514E-1,5.3954303E-1,3.4622145E-1,5.5008787E-1,4.5518455E-1,8.101933E-1,-2.5671436E-2,-4.9024345E-3,-1.574278E-4,-2.152276E-2,7.6051713E-3,-1.0926227E-2,-7.5163106E-3,-4.1571087E-3,-2.1076442E-3,-4.4274333E-5,-6.2011452E-3,-6.205727E-4,7.6543097E-3,4.0128574E-4,3.175664E-3,7.3768506E-3,1.3875008E-3,-4.7578814E-4,1.3625215E-2,2.2845985E-3,-1.6262055E-3,7.2867037E-3,1.6305638E-2,2.8362633E-3,1.653963E-2,6.1934E-3,1.6496887E-2,6.221995E-3,2.3604346E-2,8.71315E-3],"split_indices":[1,5,3,3,2,1,1,2,0,0,5,1,1,5,2,0,0,3,4,2,0,0,0,0,4,1,3,0,0,0,0,0,2,0,4,0,1,0,0,0,0,0,5,3,0,5,3,5,5,1,1,0,0,0,0,0,0,0,0,0,0,0,0,0,0,0,0,0,0,0,0,0,0,0,0,0,0,0,0,0,0],"split_type":[0,0,0,0,0,0,0,0,0,0,0,0,0,0,0,0,0,0,0,0,0,0,0,0,0,0,0,0,0,0,0,0,0,0,0,0,0,0,0,0,0,0,0,0,0,0,0,0,0,0,0,0,0,0,0,0,0,0,0,0,0,0,0,0,0,0,0,0,0,0,0,0,0,0,0,0,0,0,0,0,0],"sum_hessian":[2.97E2,1.36E2,1.61E2,9.9E1,3.7E1,9E1,7.1E1,1.7E1,8.2E1,3.1E1,6E0,4.6E1,4.4E1,6.4E1,7E0,1.3E1,4E0,1E1,7.2E1,2.7E1,4E0,3E0,3E0,1E0,4.5E1,2E1,2.4E1,2.9E1,3.5E1,6E0,1E0,1E0,9E0,9E0,6.3E1,1E0,2.6E1,1E0,3E0,2E0,1E0,2.2E1,2.3E1,1.7E1,3E0,2E1,4E0,1.3E1,1.6E1,1.3E1,2.2E1,8E0,1E0,1E0,8E0,1E0,6.2E1,1E1,1.6E1,1E0,1E0,6E0,1.6E1,3E0,2E1,5E0,1.2E1,2E0,1E0,1.9E1,1E0,1E0,3E0,2E0,1.1E1,1.2E1,4E0,4E0,9E0,2E1,2E0],"tree_param":{"num_deleted":"0","num_feature":"6","num_nodes":"81","size_leaf_vector":"1"}},{"base_weights":[3.7541645E-4,-3.092273E-2,2.3801073E-2,-4.122242E-2,-1.2295124E-2,1.0363222E-2,4.1698966E-2,-5.810654E-2,-2.982018E-2,-2.4372816E-2,-5.872056E-3,1.8692884E-4,2.2570621E-2,3.689685E-2,7.6104045E-2,-6.0866117E-2,-1.1141936E-2,-3.430531E-2,-1.2384732E-2,-3.2554984E-2,-1.4391687E-2,-1.571009E-2,-1.9381245E-3,-5.578107E-3,1.0554647E-2,1.658775E-2,3.463357E-2,2.6336731E-2,4.496537E-2,2.4365371E-2,6.046057E-3,-2.0220218E-2,-3.4470856E-2,6.5817835E-4,-5.6720497E-3,-1.2734149E-2,-3.930016E-2,-2.5588672E-3,-1.9037655E-2,-3.9014816E-2,-4.9024345E-3,-2.3497867E-3,-5.4217246E-3,2.7271907E-3,-6.4102444E-3,-4.186964E-3,1.1633873E-3,3.954117E-3,-1.0508974E-2,2.5459154E-2,2.3484912E-3,1.1877155E-2,1.9591702E-2,3.8565397E-2,7.36173E-3,1.5620677E-2,3.4242854E-2,2.4264593E-2,5.4304738E-2,-2.948828E-3,-1.699648E-2,2.0838977E-4,-5.869293E-3,2.9073716E-3,-1.2357945E-2,-1.2608815E-3,8.492232E-4,-6.2371492E-3,-1.2780905E-3,-3.1656504E-3,-1.30477315E-2,1.8779755E-3,-6.507397E-4,2.503413E-3,-1.0036138E-3,-1.1615104E-3,9.399224E-3,-6.6624824E-3,-1.3155742E-3,1.1856759E-2,1.5092969E-3,-2.4518967E-3,2.2123146E-3,6.6060736E-3,1.8560757E-3,6.9508995E-3,2.5722506E-3,6.115318E-3,1.4591933E-2,-1.3823033E-3,4.695082E-3,1.16239935E-2,1.1066437E-3,6.483722E-3,1.22768795E-2,1.6058207E-2,4.2233905E-3,8.728348E-3,1.832754E-2],"categories":[],"categories_nodes":[],"categories_segments":[],"categories_sizes":[],"default_left":[0,0,0,0,0,0,0,0,0,0,0,0,0,0,0,0,0,0,0,0,0,0,0,0,0,0,0,0,0,0,0,0,0,0,0,0,0,0,0,0,0,0,0,0,0,0,0,0,0,0,0,0,0,0,0,0,0,0,0,0,0,0,0,0,0,0,0,0,0,0,0,0,0,0,0,0,0,0,0,0,0,0,0,0,0,0,0,0,0,0,0,0,0,0,0,0,0,0,0],"id":8,"left_children":[1,3,5,7,9,11,13,15,17,19,21,23,25,27,29,31,33,35,37,39,41,43,45,47,49,51,53,55,57,-1,-1,-1,59,-1,-1,61,63,65,67,69,-1,-1,-1,71,-1,-1,73,75,77,79,81,83,85,87,89,91,93,95,97,-1,-1,-1,-1,-1,-1,-1,-1,-1,-1,-1,-1,-1,-1,-1,-1,-1,-1,-1,-1,-1,-1,-1,-1,-1,-1,-1,-1,-1,-1,-1,-1,-1,-1,-1,-1,-1,-1,-1,-1],"loss_changes":[2.1922351E-1,2.405107E-2,4.0694937E-2,1.4053628E-2,3.502945E-3,1.2294161E-2,9.252861E-3,3.469102E-3,3.563352E-3,8.3815586E-4,1.2080206E-3,3.34624E-3,2.673205E-3,4.439257E-3,6.5215677E-4,2.8511211E-3,3.52135E-4,3.8093328E-3,7.35734E-4,2.0033494E-4,7.572456E-5,9.970353E-4,9.1084355E-4,1.7336307E-3,2.386384E-3,2.2011902E-4,1.217287E-3,2.091501E-3,5.64228E-3,0E0,0E0,0E0,3.8162936E-3,0E0,0E0,8.3907694E-4,3.3668987E-3,6.5062864E-5,9.274273E-5,1.7828541E-4,0E0,0E0,0E0,6.547072E-5,0E0,0E0,6.754944E-4,2.9064817E-3,1.6220508E-3,1.8121852E-3,8.005881E-4,7.29511E-4,5.1090494E-4,1.2064576E-3,3.6973823E-4,3.9961096E-3,5.498845E-4,3.1215977E-3,2.329044E-3,0E0,0E0,0E0,0E0,0E0,0E0,0E0,0E0,0E0,0E0,0E0,0E0,0E0,0E0,0E0,0E0,0E0,0E0,0E0,0E0,0E0,0E0,0E0,0E0,0E0,0E0,0E0,0E0,0E0,0E0,0E0,0E0,0E0,0E0,0E0,0E0,0E0,0E0,0E0,0E0],"parents":[2147483647,0,0,1,1,2,2,3,3,4,4,5,5,6,6,7,7,8,8,9,9,10,10,11,11,12,12,13,13,14,14,15,15,16,16,17,17,18,18,19,19,20,20,21,21,22,22,23,23,24,24,25,25,26,26,27,27,28,28,32,32,35,35,36,36,37,37,38,38,39,39,43,43,46,46,47,47,48,48,49,49,50,50,51,51,52,52,53,53,54,54,55,55,56,56,57,57,58,58],"right_children":[2,4,6,8,10,12,14,16,18,20,22,24,26,28,30,32,34,36,38,40,42,44,46,48,50,52,54,56,58,-1,-1,-1,60,-1,-1,62,64,66,68,70,-1,-1,-1,72,-1,-1,74,76,78,80,82,84,86,88,90,92,94,96,98,-1,-1,-1,-1,-1,-1,-1,-1,-1,-1,-1,-1,-1,-1,-1,-1,-1,-1,-1,-1,-1,-1,-1,-1,-1,-1,-1,-1,-1,-1,-1,-1,-1,-1,-1,-1,-1,-1,-1,-1],"split_conditions":[2.8822497E-1,2.0210896E-1,5.799649E-1,1.3532513E-1,1.9683656E-1,4.463972E-1,9.226714E-1,1.6695958E-1,2.2671354E-1,2.0210896E-1,1.5289983E-1,3.602812E-1,6.977153E-1,6.344464E-1,1E0,1.3532513E-1,1.7574692E-1,1.4411248E-1,2.513181E-1,1.7047451E-1,1.1950791E-1,1.2478032E-1,2.2495607E-1,2.2144112E-1,4.1827768E-1,5.096661E-1,5.237258E-1,6.432337E-1,4.7803164E-1,2.4365371E-2,6.046057E-3,-2.0220218E-2,1.5289983E-1,6.5817835E-4,-5.6720497E-3,1.370826E-1,4.042179E-2,1.9507909E-1,2.1265379E-1,8.435852E-2,-4.9024345E-3,-2.3497867E-3,-5.4217246E-3,1.1950791E-1,-6.4102444E-3,-4.186964E-3,3.4797892E-1,3.602812E-1,2.6010546E-1,3.497364E-1,3.427065E-1,3.5852373E-1,5.2899826E-1,4.5869946E-1,8.87522E-1,5.940246E-1,7.609842E-1,6.7486817E-1,5.3954303E-1,-2.948828E-3,-1.699648E-2,2.0838977E-4,-5.869293E-3,2.9073716E-3,-1.2357945E-2,-1.2608815E-3,8.492232E-4,-6.2371492E-3,-1.2780905E-3,-3.1656504E-3,-1.30477315E-2,1.8779755E-3,-6.507397E-4,2.503413E-3,-1.0036138E-3,-1.1615104E-3,9.399224E-3,-6.6624824E-3,-1.3155742E-3,1.1856759E-2,1.5092969E-3,-2.4518967E-3,2.2123146E-3,6.6060736E-3,1.8560757E-3,6.9508995E-3,2.5722506E-3,6.115318E-3,1.4591933E-2,-1.3823033E-3,4.695082E-3,1.16239935E-2,1.1066437E-3,6.483722E-3,1.22768795E-2,1.6058207E-2,4.2233905E-3,8.728348E-3,1.832754E-2],"split_indices":[1,2,3,4,5,1,2,0,0,3,0,5,0,5,2,5,0,4,0,0,5,0,4,5,5,0,3,0,0,0,0,0,5,0,0,0,1,1,1,3,0,0,0,0,0,0,5,4,5,0,1,0,2,4,0,3,1,4,2,0,0,0,0,0,0,0,0,0,0,0,0,0,0,0,0,0,0,0,0,0,0,0,0,0,0,0,0,0,0,0,0,0,0,0,0,0,0,0,0],"split_type":[0,0,0,0,0,0,0,0,0,0,0,0,0,0,0,0,0,0,0,0,0,0,0,0,0,0,0,0,0,0,0,0,0,0,0,0,0,0,0,0,0,0,0,0,0,0,0,0,0,0,0,0,0,0,0,0,0,0,0,0,0,0,0,0,0,0,0,0,0,0,0,0,0,0,0,0,0,0,0,0,0,0,0,0,0,0,0,0,0,0,0,0,0,0,0,0,0,0,0],"sum_hessian":[2.97E2,1.27E2,1.7E2,8.1E1,4.6E1,9.8E1,7.2E1,3.1E1,5E1,1.5E1,3.1E1,5.4E1,4.4E1,6.5E1,7E0,2.9E1,2E0,3.9E1,1.1E1,7E0,8E0,8E0,2.3E1,3.5E1,1.9E1,3.1E1,1.3E1,3E1,3.5E1,6E0,1E0,2.2E1,7E0,1E0,1E0,8E0,3.1E1,5E0,6E0,4E0,3E0,4E0,4E0,2E0,6E0,4E0,1.9E1,1.2E1,2.3E1,6E0,1.3E1,1.4E1,1.7E1,1.1E1,2E0,1.4E1,1.6E1,1.2E1,2.3E1,4E0,3E0,3E0,5E0,1E0,3E1,4E0,1E0,5E0,1E0,1E0,3E0,1E0,1E0,7E0,1.2E1,1E1,2E0,7E0,1.6E1,3E0,3E0,4E0,9E0,4E0,1E1,1.2E1,5E0,5E0,6E0,1E0,1E0,4E0,1E1,7E0,9E0,2E0,1E1,6E0,1.7E1],"tree_param":{"num_deleted":"0","num_feature":"6","num_nodes":"99","size_leaf_vector":"1"}},{"base_weights":[4.6295288E-4,-1.9545287E-2,2.0334717E-2,-3.17476E-2,-8.6239455E-3,8.009375E-3,2.9413933E-2,-1.667248E-2,-2.6363268E-2,-1.831637E-2,-1.7807385E-3,1.6454816E-3,1.7491927E-2,2.5311168E-2,5.508631E-2,-1.50516275E-2,-2.2193385E-2,-2.0642795E-2,-8.465946E-3,-9.697185E-3,2.4805218E-3,8.932273E-3,-4.5534968E-4,2.136419E-2,1.0236899E-3,2.2296023E-2,4.5279928E-2,5.793438E-2,3.990841E-3,5.141894E-5,-2.4560949E-2,-2.5695652E-2,-1.1416566E-2,-2.2664071E-4,-3.2730582E-3,2.1275522E-3,-1.2408511E-2,-7.771622E-3,7.493843E-3,-6.6274405E-3,1.7816702E-2,2.0744905E-3,-6.228447E-3,1.5318973E-2,2.9272795E-2,-5.6381226E-3,9.564877E-3,2.8855888E-2,1.7548107E-2,5.275631E-2,3.8225176E-3,1.8169435E-2,5.1391125E-3,4.4448376E-3,-3.3104897E-3,-1.0777259E-2,-6.0272855E-3,5.5947306E-4,-8.297206E-3,1.0671616E-4,-3.7888098E-3,6.381512E-4,-4.4425195E-3,-1.5147527E-5,-8.503342E-3,3.9556506E-3,-1.9640924E-4,-2.8061392E-3,2.3274422E-4,-4.9119E-4,8.385909E-3,-1.7224153E-4,2.9023886E-3,6.873036E-4,-3.6869766E-3,5.38776E-3,-1.04475024E-4,9.456499E-3,2.0296099E-3,8.494377E-4,-2.821541E-3,8.992911E-4,3.4049035E-3,2.8302849E-3,1.0554522E-2,-3.3086143E-4,6.590703E-3,2.7133944E-3,1.7560244E-2],"categories":[],"categories_nodes":[],"categories_segments":[],"categories_sizes":[],"default_left":[0,0,0,0,0,0,0,0,0,0,0,0,0,0,0,0,0,0,0,0,0,0,0,0,0,0,0,0,0,0,0,0,0,0,0,0,0,0,0,0,0,0,0,0,0,0,0,0,0,0,0,0,0,0,0,0,0,0,0,0,0,0,0,0,0,0,0,0,0,0,0,0,0,0,0,0,0,0,0,0,0,0,0,0,0,0,0,0,0],"id":9,"left_children":[1,3,5,7,9,11,13,-1,15,17,19,21,23,25,27,-1,29,31,33,35,37,39,41,43,45,47,49,51,-1,53,55,57,59,-1,-1,-1,61,63,65,67,69,71,73,75,77,79,81,83,85,87,-1,-1,-1,-1,-1,-1,-1,-1,-1,-1,-1,-1,-1,-1,-1,-1,-1,-1,-1,-1,-1,-1,-1,-1,-1,-1,-1,-1,-1,-1,-1,-1,-1,-1,-1,-1,-1,-1,-1],"loss_changes":[1.18881956E-1,1.9582782E-2,1.6550079E-2,7.5154603E-3,5.2735656E-3,3.8937042E-3,7.6638907E-3,0E0,4.7440305E-3,5.81475E-4,1.643288E-3,6.1640004E-4,1.6361326E-3,3.5662986E-3,5.3833425E-4,0E0,2.7398933E-3,9.1873296E-4,1.4252815E-4,8.6184824E-4,1.7029524E-3,1.3622316E-3,4.8028128E-4,5.5556465E-4,3.9532664E-4,1.6115382E-3,1.5172064E-3,3.581494E-5,0E0,1.1456187E-3,1.6655531E-3,9.1662724E-4,1.615443E-4,0E0,0E0,0E0,5.5475975E-4,1.745871E-3,1.028964E-3,8.799245E-5,1.2289203E-3,4.6854332E-4,5.445612E-4,5.853642E-4,1.916741E-4,1.5425036E-4,1.1414522E-6,2.9852558E-3,3.4873039E-3,1.2384895E-3,0E0,0E0,0E0,0E0,0E0,0E0,0E0,0E0,0E0,0E0,0E0,0E0,0E0,0E0,0E0,0E0,0E0,0E0,0E0,0E0,0E0,0E0,0E0,0E0,0E0,0E0,0E0,0E0,0E0,0E0,0E0,0E0,0E0,0E0,0E0,0E0,0E0,0E0,0E0],"parents":[2147483647,0,0,1,1,2,2,3,3,4,4,5,5,6,6,8,8,9,9,10,10,11,11,12,12,13,13,14,14,16,16,17,17,18,18,19,19,20,20,21,21,22,22,23,23,24,24,25,25,26,26,27,27,29,29,30,30,31,31,32,32,36,36,37,37,38,38,39,39,40,40,41,41,42,42,43,43,44,44,45,45,46,46,47,47,48,48,49,49],"right_children":[2,4,6,8,10,12,14,-1,16,18,20,22,24,26,28,-1,30,32,34,36,38,40,42,44,46,48,50,52,-1,54,56,58,60,-1,-1,-1,62,64,66,68,70,72,74,76,78,80,82,84,86,88,-1,-1,-1,-1,-1,-1,-1,-1,-1,-1,-1,-1,-1,-1,-1,-1,-1,-1,-1,-1,-1,-1,-1,-1,-1,-1,-1,-1,-1,-1,-1,-1,-1,-1,-1,-1,-1,-1,-1],"split_conditions":[3.4446397E-1,1.6695958E-1,4.8154658E-1,7.381371E-2,2.2671354E-1,4.920914E-1,9.0509665E-1,-1.667248E-2,6.678383E-2,2.2671354E-1,2.1265379E-1,2.2144112E-1,4.5869946E-1,9.0509665E-1,1E0,-1.50516275E-2,7.7328645E-2,1.8629174E-1,1.5289983E-1,1.2478032E-1,2.58348E-1,3.813708E-1,3.8664323E-1,6.977153E-1,6.977153E-1,5.5008787E-1,8.101933E-1,9.718805E-1,3.990841E-3,1.0720562E-1,8.963093E-2,6.326889E-2,1.9859402E-1,-2.2664071E-4,-3.2730582E-3,2.1275522E-3,1.5114236E-1,3.6379614E-1,4.1476274E-1,3.6379614E-1,3.4797892E-1,3.0579966E-1,3.1634447E-1,4.2003515E-1,7.680141E-1,5.096661E-1,6.168717E-1,5.799649E-1,5.9050965E-1,4.4815466E-1,3.8225176E-3,1.8169435E-2,5.1391125E-3,4.4448376E-3,-3.3104897E-3,-1.0777259E-2,-6.0272855E-3,5.5947306E-4,-8.297206E-3,1.0671616E-4,-3.7888098E-3,6.381512E-4,-4.4425195E-3,-1.5147527E-5,-8.503342E-3,3.9556506E-3,-1.9640924E-4,-2.8061392E-3,2.3274422E-4,-4.9119E-4,8.385909E-3,-1.7224153E-4,2.9023886E-3,6.873036E-4,-3.6869766E-3,5.38776E-3,-1.04475024E-4,9.456499E-3,2.0296099E-3,8.494377E-4,-2.821541E-3,8.992911E-4,3.4049035E-3,2.8302849E-3,1.0554522E-2,-3.3086143E-4,6.590703E-3,2.7133944E-3,1.7560244E-2],"split_indices":[1,0,3,2,4,0,1,0,5,3,2,5,3,4,1,0,5,5,1,2,5,2,3,0,1,1,0,2,0,0,3,2,0,0,0,0,3,4,5,0,3,3,0,3,1,0,0,3,1,0,0,0,0,0,0,0,0,0,0,0,0,0,0,0,0,0,0,0,0,0,0,0,0,0,0,0,0,0,0,0,0,0,0,0,0,0,0,0,0],"split_type":[0,0,0,0,0,0,0,0,0,0,0,0,0,0,0,0,0,0,0,0,0,0,0,0,0,0,0,0,0,0,0,0,0,0,0,0,0,0,0,0,0,0,0,0,0,0,0,0,0,0,0,0,0,0,0,0,0,0,0,0,0,0,0,0,0,0,0,0,0,0,0,0,0,0,0,0,0,0,0,0,0,0,0,0,0,0,0,0,0],"sum_hessian":[2.97E2,1.48E2,1.49E2,6.9E1,7.9E1,6.4E1,8.5E1,1.1E1,5.8E1,3.2E1,4.7E1,3.9E1,2.5E1,7.5E1,1E1,7E0,5.1E1,2.5E1,7E0,1.6E1,3.1E1,8E0,3.1E1,2E1,5E0,6.7E1,8E0,9E0,1E0,5E0,4.6E1,1.5E1,1E1,2E0,5E0,2E0,1.4E1,1E1,2.1E1,3E0,5E0,2.2E1,9E0,1.3E1,7E0,3E0,2E0,2.6E1,4.1E1,6E0,2E0,8E0,1E0,2E0,3E0,1.1E1,3.5E1,1E0,1.4E1,1E0,9E0,2E0,1.2E1,8E0,2E0,1.2E1,9E0,2E0,1E0,2E0,3E0,1.7E1,5E0,4E0,5E0,1.1E1,2E0,6E0,1E0,1E0,2E0,1E0,1E0,7E0,1.9E1,8E0,3.3E1,1E0,5E0],"tree_param":{"num_deleted":"0","num_feature":"6","num_nodes":"89","size_leaf_vector":"1"}},{"base_weights":[4.1282416E-4,-1.42676495E-2,1.4992676E-2,-2.5492156E-2,-7.805243E-3,7.2729466E-3,2.3479797E-2,-3.889186E-2,-2.0294888E-2,-1.612398E-2,-3.5897843E-3,4.3560574E-3,2.5173794E-2,2.0198438E-2,4.147625E-2,-1.2514413E-2,-1.4636517E-2,-2.9341264E-2,-9.329128E-3,-7.900552E-3,-1.275466E-2,-5.4651746E-3,4.3321755E-3,9.92167E-3,3.460573E-3,8.548546E-3,1.0035815E-2,4.4699352E-2,1.7265035E-2,1.3071601E-2,3.392172E-3,4.7557356E-4,-7.0620063E-3,-2.2091469E-2,-4.9572278E-2,-9.731269E-3,-3.3430774E-3,-1.7008742E-2,-8.5010845E-3,-4.293022E-3,-5.6252363E-3,6.323417E-3,-2.9344084E-3,-2.3910005E-3,6.438338E-3,5.663395E-4,2.922535E-3,2.1808865E-3,5.0731372E-2,1.184241E-2,3.0420363E-2,-1.2252332E-2,-1.9341166E-3,-1.7435469E-2,-2.3082735E-3,3.4080984E-3,-3.124857E-3,-5.5061947E-3,-3.316641E-4,-8.437872E-4,-3.319216E-3,-1.6308547E-3,4.6285633E-3,9.542942E-4,4.40712E-3,-1.3638886E-3,4.263449E-3,2.8710365E-3,-1.7379285E-3,1.7524445E-2,2.9996396E-3,8.222366E-3,1.6305154E-3,9.1352465E-4,1.095105E-2],"categories":[],"categories_nodes":[],"categories_segments":[],"categories_sizes":[],"default_left":[0,0,0,0,0,0,0,0,0,0,0,0,0,0,0,0,0,0,0,0,0,0,0,0,0,0,0,0,0,0,0,0,0,0,0,0,0,0,0,0,0,0,0,0,0,0,0,0,0,0,0,0,0,0,0,0,0,0,0,0,0,0,0,0,0,0,0,0,0,0,0,0,0,0,0],"id":10,"left_children":[1,3,5,7,9,11,13,15,17,19,21,23,25,27,29,-1,31,33,35,-1,37,39,41,-1,43,45,-1,47,49,-1,-1,-1,-1,51,53,-1,55,57,59,61,-1,63,-1,65,67,-1,-1,-1,69,71,73,-1,-1,-1,-1,-1,-1,-1,-1,-1,-1,-1,-1,-1,-1,-1,-1,-1,-1,-1,-1,-1,-1,-1,-1],"loss_changes":[6.3997574E-2,1.0609088E-2,9.656973E-3,2.9713511E-3,3.3085789E-3,4.0675253E-3,3.3549964E-3,3.4801103E-4,3.7934873E-3,7.6505635E-4,9.89366E-4,1.6855927E-3,1.2280582E-3,3.6842711E-3,1.3959035E-4,0E0,4.706083E-4,2.1316316E-3,2.658124E-3,0E0,3.2587862E-4,7.4485876E-4,4.2719662E-4,0E0,1.2176922E-3,2.1348736E-5,0E0,9.858645E-4,3.7059244E-3,0E0,0E0,0E0,0E0,5.016582E-3,1.3422612E-3,0E0,1.8863116E-3,2.364323E-4,1.8757116E-4,1.2111175E-3,0E0,2.6878263E-4,0E0,9.234083E-4,1.817526E-3,0E0,0E0,0E0,9.807544E-4,4.039847E-3,2.553285E-3,0E0,0E0,0E0,0E0,0E0,0E0,0E0,0E0,0E0,0E0,0E0,0E0,0E0,0E0,0E0,0E0,0E0,0E0,0E0,0E0,0E0,0E0,0E0,0E0],"parents":[2147483647,0,0,1,1,2,2,3,3,4,4,5,5,6,6,7,7,8,8,9,9,10,10,11,11,12,12,13,13,14,14,16,16,17,17,18,18,20,20,21,21,22,22,24,24,25,25,27,27,28,28,33,33,34,34,36,36,37,37,38,38,39,39,41,41,43,43,44,44,48,48,49,49,50,50],"right_children":[2,4,6,8,10,12,14,16,18,20,22,24,26,28,30,-1,32,34,36,-1,38,40,42,-1,44,46,-1,48,50,-1,-1,-1,-1,52,54,-1,56,58,60,62,-1,64,-1,66,68,-1,-1,-1,70,72,74,-1,-1,-1,-1,-1,-1,-1,-1,-1,-1,-1,-1,-1,-1,-1,-1,-1,-1,-1,-1,-1,-1,-1,-1],"split_conditions":[3.4446397E-1,1.4586994E-1,5.799649E-1,8.2601056E-2,1.8629174E-1,7.188049E-1,9.0509665E-1,1.6695958E-1,1.00175746E-1,8.084358E-2,3.813708E-1,3.4622145E-1,7.082601E-1,4.5518455E-1,1E0,-1.2514413E-2,1.7574692E-1,1.8629174E-1,7.908612E-2,-7.900552E-3,1.8629174E-1,3.6379614E-1,6.274165E-1,9.92167E-3,3.884007E-1,5.8523726E-1,1.0035815E-2,3.5852373E-1,8.1370825E-1,1.3071601E-2,3.392172E-3,4.7557356E-4,-7.0620063E-3,1.0720562E-1,1.7047451E-1,-9.731269E-3,1.370826E-1,2.5659052E-1,2.513181E-1,3.602812E-1,-5.6252363E-3,3.075571E-1,-2.9344084E-3,4.463972E-1,6.274165E-1,5.663395E-4,2.922535E-3,2.1808865E-3,6.29174E-1,4.5518455E-1,4.4815466E-1,-1.2252332E-2,-1.9341166E-3,-1.7435469E-2,-2.3082735E-3,3.4080984E-3,-3.124857E-3,-5.5061947E-3,-3.316641E-4,-8.437872E-4,-3.319216E-3,-1.6308547E-3,4.6285633E-3,9.542942E-4,4.40712E-3,-1.3638886E-3,4.263449E-3,2.8710365E-3,-1.7379285E-3,1.7524445E-2,2.9996396E-3,8.222366E-3,1.6305154E-3,9.1352465E-4,1.095105E-2],"split_indices":[0,1,2,2,5,0,1,0,0,3,2,0,5,1,1,0,0,4,4,0,0,2,3,0,0,4,0,0,4,0,0,0,0,5,2,0,0,2,0,2,0,0,0,1,4,0,0,0,2,5,0,0,0,0,0,0,0,0,0,0,0,0,0,0,0,0,0,0,0,0,0,0,0,0,0],"split_type":[0,0,0,0,0,0,0,0,0,0,0,0,0,0,0,0,0,0,0,0,0,0,0,0,0,0,0,0,0,0,0,0,0,0,0,0,0,0,0,0,0,0,0,0,0,0,0,0,0,0,0,0,0,0,0,0,0,0,0,0,0,0,0,0,0,0,0,0,0,0,0,0,0,0,0],"sum_hessian":[2.97E2,1.48E2,1.49E2,5.3E1,9.5E1,7.9E1,7E1,1.3E1,4E1,3.1E1,6.4E1,6.9E1,1E1,6.1E1,9E0,1.1E1,2E0,2.1E1,1.9E1,6E0,2.5E1,5.2E1,1.2E1,1E0,6.8E1,4E0,6E0,5E0,5.6E1,8E0,1E0,1E0,1E0,1.7E1,4E0,3E0,1.6E1,1.1E1,1.4E1,4.9E1,3E0,1.1E1,1E0,2.3E1,4.5E1,1E0,3E0,1E0,4E0,4.1E1,1.5E1,7E0,1E1,3E0,1E0,5E0,1.1E1,1E1,1E0,5E0,9E0,4.7E1,2E0,9E0,2E0,2.1E1,2E0,3.6E1,9E0,3E0,1E0,1.1E1,3E1,3E0,1.2E1],"tree_param":{"num_deleted":"0","num_feature":"6","num_nodes":"75","size_leaf_vector":"1"}},{"base_weights":[3.1506456E-4,-1.2285311E-2,9.745082E-3,-2.7213521E-2,-9.753842E-3,5.445528E-3,1.9754905E-2,-9.267109E-3,-3.4426975E-3,-2.2760501E-2,-7.947372E-3,1.9885488E-3,1.2663059E-2,1.0127363E-2,2.5639534E-2,-3.203392E-4,-3.2698315E-2,-8.411694E-3,-6.8062632E-3,3.5188503E-3,-1.8236795E-2,1.3944048E-2,-5.4021836E-3,-1.7938972E-2,1.5801694E-2,-6.287893E-3,2.805825E-2,1.0691643E-2,-5.465949E-3,-1.329772E-2,-1.4531231E-2,-1.7264366E-2,-5.7781828E-3,1.1177137E-3,1.352911E-2,-9.668827E-3,-8.992386E-3,7.2201216E-3,1.6769703E-2,-1.1145115E-3,-6.432581E-3,9.690771E-3,8.779832E-3,-3.833771E-5,-2.791214E-3,1.5926361E-2,3.3605225E-2,-7.335759E-3,7.014275E-5,4.0426257E-4,-6.034715E-3,-2.2813678E-4,-2.262596E-3,-1.1753767E-3,1.1546136E-3,-7.911206E-4,4.86572E-3,-3.3441784E-3,-5.5933E-5,-4.9142155E-4,4.514061E-3,5.6412485E-3,1.3392449E-3,-2.0504748E-3,6.4035775E-3,1.6815878E-2,1.8925238E-3,1.0574548E-2,6.03962E-4],"categories":[],"categories_nodes":[],"categories_segments":[],"categories_sizes":[],"default_left":[0,0,0,0,0,0,0,0,0,0,0,0,0,0,0,0,0,0,0,0,0,0,0,0,0,0,0,0,0,0,0,0,0,0,0,0,0,0,0,0,0,0,0,0,0,0,0,0,0,0,0,0,0,0,0,0,0,0,0,0,0,0,0,0,0,0,0,0,0],"id":11,"left_children":[1,3,5,7,9,11,13,-1,-1,15,17,19,21,23,25,27,29,-1,31,33,35,37,-1,39,41,43,45,-1,-1,-1,47,49,51,53,55,-1,57,59,61,-1,-1,-1,63,-1,-1,65,67,-1,-1,-1,-1,-1,-1,-1,-1,-1,-1,-1,-1,-1,-1,-1,-1,-1,-1,-1,-1,-1,-1],"loss_changes":[3.5528604E-2,4.571723E-3,7.251885E-3,6.870935E-4,2.427184E-3,2.9938722E-3,2.6297178E-3,0E0,0E0,2.8886045E-3,2.0789052E-3,2.6330953E-3,1.7833416E-3,3.6278781E-3,2.5703534E-3,3.8675847E-3,1.25702E-3,0E0,9.2166197E-4,1.8596868E-3,4.863022E-4,6.0090143E-4,0E0,1.19646196E-4,1.8019923E-3,5.4550444E-5,1.4163535E-3,0E0,0E0,0E0,7.3815905E-4,4.5165909E-4,7.730897E-4,8.9522684E-4,6.9506513E-4,0E0,9.280018E-5,9.259487E-4,5.669682E-4,0E0,0E0,0E0,2.8927762E-3,0E0,0E0,3.891682E-3,9.154044E-4,0E0,0E0,0E0,0E0,0E0,0E0,0E0,0E0,0E0,0E0,0E0,0E0,0E0,0E0,0E0,0E0,0E0,0E0,0E0,0E0,0E0,0E0],"parents":[2147483647,0,0,1,1,2,2,3,3,4,4,5,5,6,6,9,9,10,10,11,11,12,12,13,13,14,14,15,15,16,16,18,18,19,19,20,20,21,21,23,23,24,24,25,25,26,26,30,30,31,31,32,32,33,33,34,34,36,36,37,37,38,38,42,42,45,45,46,46],"right_children":[2,4,6,8,10,12,14,-1,-1,16,18,20,22,24,26,28,30,-1,32,34,36,38,-1,40,42,44,46,-1,-1,-1,48,50,52,54,56,-1,58,60,62,-1,-1,-1,64,-1,-1,66,68,-1,-1,-1,-1,-1,-1,-1,-1,-1,-1,-1,-1,-1,-1,-1,-1,-1,-1,-1,-1,-1,-1],"split_conditions":[2.8822497E-1,8.2601056E-2,6.8365556E-1,1.6344464E-1,7.381371E-2,5.799649E-1,6.010545E-1,-9.267109E-3,-3.4426975E-3,8.611599E-2,6.85413E-2,6.344464E-1,6.625659E-1,5.9050965E-1,4.8154658E-1,7.908612E-2,1.00175746E-1,-8.411694E-3,7.7328645E-2,4.920914E-1,4.463972E-1,4.692443E-1,-5.4021836E-3,5.588752E-1,7.065026E-1,6.8365556E-1,4.8154658E-1,1.0691643E-2,-5.465949E-3,-1.329772E-2,8.084358E-2,7.908612E-2,1.5289983E-1,3.0052724E-1,4.7100174E-1,-9.668827E-3,5.869947E-1,6.8365556E-1,8.5413E-1,-1.1145115E-3,-6.432581E-3,9.690771E-3,8.400703E-1,-3.833771E-5,-2.791214E-3,7.2231984E-1,9.841828E-1,-7.335759E-3,7.014275E-5,4.0426257E-4,-6.034715E-3,-2.2813678E-4,-2.262596E-3,-1.1753767E-3,1.1546136E-3,-7.911206E-4,4.86572E-3,-3.3441784E-3,-5.5933E-5,-4.9142155E-4,4.514061E-3,5.6412485E-3,1.3392449E-3,-2.0504748E-3,6.4035775E-3,1.6815878E-2,1.8925238E-3,1.0574548E-2,6.03962E-4],"split_indices":[2,3,3,2,1,0,5,0,0,4,4,4,3,0,2,0,0,0,2,3,5,4,0,0,3,0,0,0,0,0,2,1,3,0,4,0,1,2,5,0,0,0,2,0,0,3,3,0,0,0,0,0,0,0,0,0,0,0,0,0,0,0,0,0,0,0,0,0,0],"split_type":[0,0,0,0,0,0,0,0,0,0,0,0,0,0,0,0,0,0,0,0,0,0,0,0,0,0,0,0,0,0,0,0,0,0,0,0,0,0,0,0,0,0,0,0,0,0,0,0,0,0,0,0,0,0,0,0,0,0,0,0,0,0,0,0,0,0,0,0,0],"sum_hessian":[2.97E2,1.27E2,1.7E2,1.7E1,1.1E2,1.2E2,5E1,1.3E1,4E0,1.2E1,9.8E1,8.2E1,3.8E1,2E1,3E1,4E0,8E0,4E0,9.4E1,7.7E1,5E0,3.7E1,1E0,3E0,1.7E1,2E0,2.8E1,1E0,3E0,4E0,4E0,7E0,8.7E1,6.3E1,1.4E1,1E0,4E0,1.2E1,2.5E1,1E0,2E0,4E0,1.3E1,1E0,1E0,1E1,1.8E1,2E0,2E0,1E0,6E0,2.3E1,6.4E1,2.2E1,4.1E1,2E0,1.2E1,3E0,1E0,6E0,6E0,2.1E1,4E0,6E0,7E0,1E0,9E0,1.7E1,1E0],"tree_param":{"num_deleted":"0","num_feature":"6","num_nodes":"69","size_leaf_vector":"1"}},{"base_weights":[1.7214782E-4,-8.766898E-3,7.5294594E-3,-1.25712175E-2,-3.0047763E-3,5.2340296E-3,1.760791E-2,-8.920012E-3,-1.1293529E-2,-7.4693626E-3,-8.1089925E-4,4.326626E-3,7.206631E-3,1.2459625E-2,2.8236177E-2,-2.482454E-2,-1.000909E-2,-1.21251345E-2,-3.404314E-3,4.288477E-3,-4.714467E-3,1.5262316E-3,7.776663E-3,2.1077156E-2,7.0329667E-3,1.0178171E-2,1.6634943E-3,-4.104352E-3,-9.422256E-3,-1.8196583E-2,-7.5352485E-3,-5.007664E-3,-6.6955094E-3,-7.4982643E-4,-7.86221E-3,9.028435E-3,-3.7726674E-3,-1.001215E-2,1.4934107E-3,4.5442497E-3,-9.509474E-3,1.0598222E-2,2.6778309E-3,1.0326863E-3,2.3104668E-2,1.6332106E-3,1.7505836E-2,-2.765268E-3,-7.246828E-3,6.9138054E-3,-2.7198938E-3,-1.869607E-3,-5.1178935E-4,3.089428E-4,-4.5440198E-4,-5.920172E-4,-2.7502063E-3,8.830343E-4,4.7225193E-3,-2.1185018E-3,8.8996894E-4,9.349823E-4,-3.4467005E-3,1.7747284E-3,-2.7133228E-4,9.1124367E-4,7.2378875E-3,-6.211599E-5,-5.635804E-3,1.3624668E-3,5.236968E-3,3.637382E-3,-4.8674943E-4,1.1346817E-3,7.708407E-3,-1.5881539E-3,3.3013346E-3,1.5612603E-3,5.784059E-3],"categories":[],"categories_nodes":[],"categories_segments":[],"categories_sizes":[],"default_left":[0,0,0,0,0,0,0,0,0,0,0,0,0,0,0,0,0,0,0,0,0,0,0,0,0,0,0,0,0,0,0,0,0,0,0,0,0,0,0,0,0,0,0,0,0,0,0,0,0,0,0,0,0,0,0,0,0,0,0,0,0,0,0,0,0,0,0,0,0,0,0,0,0,0,0,0,0,0,0],"id":12,"left_children":[1,3,5,7,9,11,13,-1,15,17,19,21,-1,23,25,27,29,31,33,35,37,39,41,43,45,-1,-1,-1,-1,47,49,51,-1,53,55,57,59,61,63,65,67,69,71,-1,73,75,77,-1,-1,-1,-1,-1,-1,-1,-1,-1,-1,-1,-1,-1,-1,-1,-1,-1,-1,-1,-1,-1,-1,-1,-1,-1,-1,-1,-1,-1,-1,-1,-1],"loss_changes":[1.966468E-2,2.9215543E-3,3.7018787E-3,1.440363E-3,5.326545E-4,2.1975946E-3,1.2897076E-3,0E0,1.0897703E-3,2.9938924E-4,7.766368E-4,1.2441215E-3,0E0,8.80582E-4,9.741066E-4,1.04478095E-5,1.3212129E-3,4.686371E-4,1.2427244E-4,6.8362255E-4,7.3847437E-4,2.4745485E-3,8.060457E-4,2.0650611E-4,8.196735E-4,0E0,0E0,0E0,0E0,6.335089E-4,2.87779E-3,1.3623183E-5,0E0,1.2449014E-5,1.2652221E-5,4.0301855E-4,1.761064E-4,2.6847736E-4,1.21995996E-4,1.6380451E-3,1.3768186E-3,1.4576507E-3,9.1340556E-4,0E0,2.5313348E-4,7.723219E-4,8.799485E-6,0E0,0E0,0E0,0E0,0E0,0E0,0E0,0E0,0E0,0E0,0E0,0E0,0E0,0E0,0E0,0E0,0E0,0E0,0E0,0E0,0E0,0E0,0E0,0E0,0E0,0E0,0E0,0E0,0E0,0E0,0E0,0E0],"parents":[2147483647,0,0,1,1,2,2,3,3,4,4,5,5,6,6,8,8,9,9,10,10,11,11,13,13,14,14,15,15,16,16,17,17,18,18,19,19,20,20,21,21,22,22,23,23,24,24,29,29,30,30,31,31,33,33,34,34,35,35,36,36,37,37,38,38,39,39,40,40,41,41,42,42,44,44,45,45,46,46],"right_children":[2,4,6,8,10,12,14,-1,16,18,20,22,-1,24,26,28,30,32,34,36,38,40,42,44,46,-1,-1,-1,-1,48,50,52,-1,54,56,58,60,62,64,66,68,70,72,-1,74,76,78,-1,-1,-1,-1,-1,-1,-1,-1,-1,-1,-1,-1,-1,-1,-1,-1,-1,-1,-1,-1,-1,-1,-1,-1,-1,-1,-1,-1,-1,-1,-1,-1],"split_conditions":[3.14587E-1,2.0210896E-1,7.644991E-1,3.5149384E-2,1.9683656E-1,9.226714E-1,7.71529E-1,-8.920012E-3,5.9753954E-2,2.0210896E-1,2.231986E-1,4.920914E-1,7.206631E-3,5.237258E-1,9.718805E-1,6.678383E-2,8.084358E-2,2.3550087E-1,1.5992971E-1,3.4797892E-1,3.532513E-1,4.2003515E-1,7.3110723E-1,6.9595784E-1,8.5061514E-1,1.0178171E-2,1.6634943E-3,-4.104352E-3,-9.422256E-3,1.0720562E-1,6.326889E-2,8.963093E-2,-6.6955094E-3,1.5114236E-1,1.2478032E-1,2.5483304E-1,2.1616872E-1,1.2478032E-1,2.1616872E-1,5.940246E-1,4.9912128E-1,5.799649E-1,4.5869946E-1,1.0326863E-3,7.082601E-1,6.010545E-1,8.5413E-1,-2.765268E-3,-7.246828E-3,6.9138054E-3,-2.7198938E-3,-1.869607E-3,-5.1178935E-4,3.089428E-4,-4.5440198E-4,-5.920172E-4,-2.7502063E-3,8.830343E-4,4.7225193E-3,-2.1185018E-3,8.8996894E-4,9.349823E-4,-3.4467005E-3,1.7747284E-3,-2.7133228E-4,9.1124367E-4,7.2378875E-3,-6.211599E-5,-5.635804E-3,1.3624668E-3,5.236968E-3,3.637382E-3,-4.8674943E-4,1.1346817E-3,7.708407E-3,-1.5881539E-3,3.3013346E-3,1.5612603E-3,5.784059E-3],"split_indices":[0,2,2,1,5,0,5,0,4,3,1,5,0,5,5,5,2,2,5,5,2,5,5,0,0,0,0,0,0,5,1,4,0,0,0,4,0,0,0,3,0,2,2,0,1,5,0,0,0,0,0,0,0,0,0,0,0,0,0,0,0,0,0,0,0,0,0,0,0,0,0,0,0,0,0,0,0,0,0],"split_type":[0,0,0,0,0,0,0,0,0,0,0,0,0,0,0,0,0,0,0,0,0,0,0,0,0,0,0,0,0,0,0,0,0,0,0,0,0,0,0,0,0,0,0,0,0,0,0,0,0,0,0,0,0,0,0,0,0,0,0,0,0,0,0,0,0,0,0,0,0,0,0,0,0,0,0,0,0,0,0],"sum_hessian":[2.97E2,1.34E2,1.63E2,8E1,5.4E1,1.34E2,2.9E1,4E0,7.6E1,1.7E1,3.7E1,1.29E2,5E0,2.1E1,8E0,5E0,7.1E1,7E0,1E1,1.6E1,2.1E1,7.2E1,5.7E1,7E0,1.4E1,6E0,2E0,3E0,2E0,1.5E1,5.6E1,5E0,2E0,7E0,3E0,1E1,6E0,1.1E1,1E1,5.7E1,1.5E1,3.6E1,2.1E1,1E0,6E0,1E1,4E0,7E0,8E0,2E0,5.4E1,3E0,2E0,2E0,5E0,1E0,2E0,6E0,4E0,4E0,2E0,1E0,1E1,3E0,7E0,5.4E1,3E0,8E0,7E0,2E1,1.6E1,6E0,1.5E1,1E0,5E0,6E0,4E0,1E0,3E0],"tree_param":{"num_deleted":"0","num_feature":"6","num_nodes":"79","size_leaf_vector":"1"}},{"base_weights":[1.6316952E-4,-6.7013805E-3,5.737027E-3,-1.7295301E-2,-5.2206735E-3,3.2116808E-3,1.1318945E-2,-8.30326E-3,-2.7670315E-2,-1.9631704E-2,-4.416403E-3,1.2050294E-3,7.09118E-3,8.600987E-3,9.637217E-3,-1.495266E-2,1.2196223E-2,-9.421063E-3,-7.9064374E-4,-3.6756708E-3,-8.479357E-3,-1.3947248E-2,-3.4666425E-3,2.5595757E-3,-1.5250365E-2,6.446028E-3,5.2946936E-3,2.4501563E-3,1.42614925E-2,-7.259051E-4,-5.8721784E-3,8.050848E-3,-2.5625469E-3,-1.6157627E-2,8.9192396E-4,1.9180342E-3,-4.835645E-3,-1.9803387E-3,5.327532E-3,-5.5003166E-3,2.5463105E-5,6.1595915E-3,-3.7465098E-3,-3.9042593E-3,5.944701E-3,4.3003898E-4,1.7851E-2,2.4576188E-4,-5.724192E-4,-1.5557386E-3,-7.169381E-3,-8.331079E-4,2.348943E-3,-6.42128E-3,-9.860167E-4,9.6314435E-4,-2.2201438E-3,-3.7115882E-4,2.697634E-3,9.797822E-4,3.2415942E-3,3.5252254E-3,-1.5656154E-4,-2.1600367E-3,2.3858072E-3,1.3507963E-2,4.3707266E-3],"categories":[],"categories_nodes":[],"categories_segments":[],"categories_sizes":[],"default_left":[0,0,0,0,0,0,0,0,0,0,0,0,0,0,0,0,0,0,0,0,0,0,0,0,0,0,0,0,0,0,0,0,0,0,0,0,0,0,0,0,0,0,0,0,0,0,0,0,0,0,0,0,0,0,0,0,0,0,0,0,0,0,0,0,0,0,0],"id":13,"left_children":[1,3,5,7,9,11,13,15,17,19,21,23,25,-1,27,29,31,-1,-1,-1,-1,33,35,37,39,-1,41,43,45,47,-1,-1,-1,49,-1,51,53,55,57,-1,-1,59,-1,-1,61,63,65,-1,-1,-1,-1,-1,-1,-1,-1,-1,-1,-1,-1,-1,-1,-1,-1,-1,-1,-1,-1],"loss_changes":[1.14405295E-2,2.0116954E-3,2.2895327E-3,1.262927E-3,1.2925523E-3,8.86707E-4,1.2118653E-3,1.5454586E-3,5.7146186E-4,3.592996E-5,9.835805E-4,1.7553333E-3,8.94831E-4,0E0,1.560335E-3,5.117564E-4,1.1400405E-3,0E0,0E0,0E0,0E0,4.2204116E-4,7.8329665E-4,9.1532274E-4,2.8532185E-4,0E0,6.306224E-4,1.158183E-3,1.4321185E-3,7.0427986E-6,0E0,0E0,0E0,6.4039836E-4,0E0,6.323787E-4,2.0853858E-3,8.1153825E-4,1.093689E-3,0E0,0E0,4.352188E-4,0E0,0E0,6.4440153E-4,4.590536E-4,1.3953233E-3,0E0,0E0,0E0,0E0,0E0,0E0,0E0,0E0,0E0,0E0,0E0,0E0,0E0,0E0,0E0,0E0,0E0,0E0,0E0,0E0],"parents":[2147483647,0,0,1,1,2,2,3,3,4,4,5,5,6,6,7,7,8,8,9,9,10,10,11,11,12,12,14,14,15,15,16,16,21,21,22,22,23,23,24,24,26,26,27,27,28,28,29,29,33,33,35,35,36,36,37,37,38,38,41,41,44,44,45,45,46,46],"right_children":[2,4,6,8,10,12,14,16,18,20,22,24,26,-1,28,30,32,-1,-1,-1,-1,34,36,38,40,-1,42,44,46,48,-1,-1,-1,50,-1,52,54,56,58,-1,-1,60,-1,-1,62,64,66,-1,-1,-1,-1,-1,-1,-1,-1,-1,-1,-1,-1,-1,-1,-1,-1,-1,-1,-1,-1],"split_conditions":[3.075571E-1,7.381371E-2,6.8365556E-1,1.1950791E-1,5.9753954E-2,5.799649E-1,6.924429E-1,1.142355E-1,1.4411248E-1,1.3532513E-1,7.205624E-2,6.344464E-1,5.869947E-1,8.600987E-3,6.3268894E-1,4.042179E-2,7.908612E-2,-9.421063E-3,-7.9064374E-4,-3.6756708E-3,-8.479357E-3,2.1089631E-1,1.3884006E-1,3.3743408E-1,5.9050965E-1,6.446028E-3,6.5905094E-1,6.7486817E-1,6.010545E-1,1.0720562E-1,-5.8721784E-3,8.050848E-3,-2.5625469E-3,8.611599E-2,8.9192396E-4,1.00175746E-1,1.4586994E-1,2.2495607E-1,2.970123E-1,-5.5003166E-3,2.5463105E-5,6.3268894E-1,-3.7465098E-3,-3.9042593E-3,5.237258E-1,7.644991E-1,6.29174E-1,2.4576188E-4,-5.724192E-4,-1.5557386E-3,-7.169381E-3,-8.331079E-4,2.348943E-3,-6.42128E-3,-9.860167E-4,9.6314435E-4,-2.2201438E-3,-3.7115882E-4,2.697634E-3,9.797822E-4,3.2415942E-3,3.5252254E-3,-1.5656154E-4,-2.1600367E-3,2.3858072E-3,1.3507963E-2,4.3707266E-3],"split_indices":[3,1,3,5,4,0,3,5,2,2,2,4,0,0,5,1,0,0,0,0,0,0,1,5,1,0,3,1,2,0,0,0,0,5,0,1,1,5,0,0,0,4,0,0,5,3,2,0,0,0,0,0,0,0,0,0,0,0,0,0,0,0,0,0,0,0,0],"split_type":[0,0,0,0,0,0,0,0,0,0,0,0,0,0,0,0,0,0,0,0,0,0,0,0,0,0,0,0,0,0,0,0,0,0,0,0,0,0,0,0,0,0,0,0,0,0,0,0,0,0,0,0,0,0,0,0,0,0,0,0,0,0,0,0,0,0,0],"sum_hessian":[2.97E2,1.33E2,1.64E2,1.5E1,1.18E2,1.14E2,5E1,9E0,6E0,5E0,1.13E2,7.6E1,3.8E1,3E0,4.7E1,7E0,2E0,5E0,1E0,4E0,1E0,9E0,1.04E2,7.1E1,5E0,3E0,3.5E1,1.9E1,2.8E1,2E0,5E0,1E0,1E0,8E0,1E0,2.1E1,8.3E1,2.7E1,4.4E1,4E0,1E0,3.4E1,1E0,3E0,1.6E1,6E0,2.2E1,1E0,1E0,4E0,4E0,1.2E1,9E0,6E0,7.7E1,1.4E1,1.3E1,1.6E1,2.8E1,2.2E1,1.2E1,8E0,8E0,3E0,3E0,1E0,2.1E1],"tree_param":{"num_deleted":"0","num_feature":"6","num_nodes":"67","size_leaf_vector":"1"}},{"base_weights":[8.702118E-5,-4.924134E-3,4.324313E-3,-1.2395117E-2,-3.7624517E-3,3.4474197E-3,1.6048258E-2,-4.797602E-3,-7.918405E-3,-8.623924E-3,-2.457251E-3,-1.8283381E-3,4.869525E-3,2.4094963E-3,5.8445386E-3,-4.4928277E-3,-1.1933565E-2,-1.6807897E-2,-5.154886E-3,1.3053131E-2,-3.2734976E-3,3.8626534E-3,-5.7206154E-3,7.7189687E-3,4.47801E-3,9.847642E-4,-6.335815E-3,-4.365587E-3,-6.1175827E-4,-1.9694807E-3,-1.9592095E-2,6.464345E-3,-1.1014865E-2,1.8113136E-2,-1.0780335E-3,-2.0112118E-2,-2.074587E-3,8.691856E-3,-8.457303E-4,-8.379966E-3,3.9334297E-3,3.5942034E-3,1.3752079E-2,-2.6665092E-3,-2.4614335E-4,-1.1814595E-3,-6.756306E-3,-3.067732E-4,3.7005546E-3,-4.3617077E-3,1.6736031E-3,6.183577E-3,1.592517E-3,-8.565664E-3,-2.6262046E-3,-2.8930053E-3,-4.1846524E-4,-2.3589135E-4,3.7921146E-3,-1.2273312E-3,2.7537346E-4,2.2301674E-4,-2.7113247E-3,1.6518116E-3,-3.5355092E-4,1.9288134E-3,4.367888E-4,5.1534176E-3,9.632111E-6],"categories":[],"categories_nodes":[],"categories_segments":[],"categories_sizes":[],"default_left":[0,0,0,0,0,0,0,0,0,0,0,0,0,0,0,0,0,0,0,0,0,0,0,0,0,0,0,0,0,0,0,0,0,0,0,0,0,0,0,0,0,0,0,0,0,0,0,0,0,0,0,0,0,0,0,0,0,0,0,0,0,0,0,0,0,0,0,0,0],"id":14,"left_children":[1,3,5,7,9,11,13,-1,15,17,19,21,23,-1,-1,25,27,29,31,33,35,37,39,-1,41,-1,43,-1,-1,-1,45,47,49,51,-1,53,55,57,59,61,63,65,67,-1,-1,-1,-1,-1,-1,-1,-1,-1,-1,-1,-1,-1,-1,-1,-1,-1,-1,-1,-1,-1,-1,-1,-1,-1,-1],"loss_changes":[6.348943E-3,1.1423742E-3,1.6101394E-3,1.6320893E-4,7.4023264E-4,1.1493106E-3,1.4630705E-4,0E0,8.392695E-5,6.231201E-4,1.2581174E-3,7.5307704E-4,8.648385E-4,0E0,0E0,1.21107005E-4,7.395516E-5,7.100799E-5,1.3648844E-3,4.8624736E-4,1.8155717E-3,3.2567937E-4,5.4643187E-4,0E0,9.2595373E-4,0E0,7.71763E-5,0E0,0E0,0E0,1.4055334E-4,3.2029513E-4,8.4132643E-4,1.8569175E-5,0E0,3.2523437E-4,4.3412106E-4,2.7191243E-4,4.9544684E-5,1.0273757E-4,4.6684232E-5,6.574906E-4,4.6949182E-4,0E0,0E0,0E0,0E0,0E0,0E0,0E0,0E0,0E0,0E0,0E0,0E0,0E0,0E0,0E0,0E0,0E0,0E0,0E0,0E0,0E0,0E0,0E0,0E0,0E0,0E0],"parents":[2147483647,0,0,1,1,2,2,3,3,4,4,5,5,6,6,8,8,9,9,10,10,11,11,12,12,15,15,16,16,17,17,18,18,19,19,20,20,21,21,22,22,24,24,26,26,30,30,31,31,32,32,33,33,35,35,36,36,37,37,38,38,39,39,40,40,41,41,42,42],"right_children":[2,4,6,8,10,12,14,-1,16,18,20,22,24,-1,-1,26,28,30,32,34,36,38,40,-1,42,-1,44,-1,-1,-1,46,48,50,52,-1,54,56,58,60,62,64,66,68,-1,-1,-1,-1,-1,-1,-1,-1,-1,-1,-1,-1,-1,-1,-1,-1,-1,-1,-1,-1,-1,-1,-1,-1,-1,-1],"split_conditions":[3.1810194E-1,8.2601056E-2,9.0509665E-1,1.2478032E-1,1.1072056E-1,3.427065E-1,5.887522E-1,-4.797602E-3,1.5114236E-1,8.963093E-2,8.611599E-2,2.2144112E-1,3.1985942E-1,2.4094963E-3,5.8445386E-3,7.908612E-2,2.1089631E-1,7.381371E-2,1.3884006E-1,8.611599E-2,7.205624E-2,3.6203867E-1,4.920914E-1,7.7189687E-3,9.0509665E-1,9.847642E-4,6.85413E-2,-4.365587E-3,-6.1175827E-4,-1.9694807E-3,3.8664322E-2,6.678383E-2,2.3022847E-1,7.908612E-2,-1.0780335E-3,1.00175746E-1,8.084358E-2,3.2161686E-1,3.6555362E-1,1.2478032E-1,6.625659E-1,5.026362E-1,8.101933E-1,-2.6665092E-3,-2.4614335E-4,-1.1814595E-3,-6.756306E-3,-3.067732E-4,3.7005546E-3,-4.3617077E-3,1.6736031E-3,6.183577E-3,1.592517E-3,-8.565664E-3,-2.6262046E-3,-2.8930053E-3,-4.1846524E-4,-2.3589135E-4,3.7921146E-3,-1.2273312E-3,2.7537346E-4,2.2301674E-4,-2.7113247E-3,1.6518116E-3,-3.5355092E-4,1.9288134E-3,4.367888E-4,5.1534176E-3,9.632111E-6],"split_indices":[1,3,0,1,5,4,2,0,5,0,4,4,1,0,0,2,1,2,3,0,1,0,0,0,4,0,3,0,0,0,4,1,3,0,0,0,0,2,0,3,1,1,0,0,0,0,0,0,0,0,0,0,0,0,0,0,0,0,0,0,0,0,0,0,0,0,0,0,0],"split_type":[0,0,0,0,0,0,0,0,0,0,0,0,0,0,0,0,0,0,0,0,0,0,0,0,0,0,0,0,0,0,0,0,0,0,0,0,0,0,0,0,0,0,0,0,0,0,0,0,0,0,0,0,0,0,0,0,0,0,0,0,0,0,0,0,0,0,0,0,0],"sum_hessian":[2.97E2,1.36E2,1.61E2,1.7E1,1.19E2,1.51E2,1E1,8E0,9E0,2.4E1,9.5E1,3.2E1,1.19E2,4E0,6E0,6E0,3E0,6E0,1.8E1,4E0,9.1E1,1.3E1,1.9E1,1E0,1.18E2,1E0,5E0,2E0,1E0,2E0,4E0,6E0,1.2E1,3E0,1E0,5E0,8.6E1,6E0,7E0,1.5E1,4E0,1.09E2,9E0,3E0,2E0,1E0,3E0,3E0,3E0,1E1,2E0,2E0,1E0,2E0,3E0,6E0,8E1,2E0,4E0,2E0,5E0,1E0,1.4E1,3E0,1E0,4.6E1,6.3E1,7E0,2E0],"tree_param":{"num_deleted":"0","num_feature":"6","num_nodes":"69","size_leaf_vector":"1"}},{"base_weights":[4.8208556E-5,-4.2926013E-3,2.8778624E-3,-6.5025524E-3,-1.7297523E-3,1.7676605E-3,8.406957E-3,-4.9451077E-3,-1.6591847E-2,-8.386666E-4,-3.93126E-3,1.3155742E-3,1.0944366E-2,1.5085433E-2,5.292719E-3,-1.0262529E-2,-3.4172377E-3,-7.694328E-3,-6.0287477E-3,-1.537615E-3,6.1787604E-3,2.0942609E-3,-2.3589134E-3,1.8311121E-3,4.6092034E-3,5.971527E-3,6.354675E-3,-5.542437E-3,8.805555E-3,-3.7971735E-3,-1.1995739E-2,-1.2401581E-2,-1.9841553E-3,-6.209373E-4,-2.3934366E-3,-5.224185E-4,-8.72612E-3,3.120184E-3,-3.080368E-5,1.3448182E-3,2.3679256E-2,-5.3616073E-3,5.0673485E-3,-2.2624333E-3,1.2214978E-2,3.0104318E-4,-8.539438E-3,6.018125E-3,4.2875293E-3,-1.3113499E-3,-3.1127932E-4,-4.4059756E-4,-3.9384128E-3,-1.9869804E-3,-6.1939717E-3,-2.4353506E-3,1.867015E-4,-9.928371E-4,7.2451506E-4,-3.8808347E-3,-6.1225895E-5,3.0664494E-4,4.0119174E-3,9.931421E-3,-6.8957807E-4,1.6403103E-3,-2.5841808E-3,1.3594628E-4,3.7819864E-3,-1.2159348E-5,-1.0059357E-3,1.1096478E-3,4.387093E-3,-2.3474694E-4,3.7021638E-4,-3.554058E-3,2.0742418E-4,2.2187233E-3,-3.1175613E-4],"categories":[],"categories_nodes":[],"categories_segments":[],"categories_sizes":[],"default_left":[0,0,0,0,0,0,0,0,0,0,0,0,0,0,0,0,0,0,0,0,0,0,0,0,0,0,0,0,0,0,0,0,0,0,0,0,0,0,0,0,0,0,0,0,0,0,0,0,0,0,0,0,0,0,0,0,0,0,0,0,0,0,0,0,0,0,0,0,0,0,0,0,0,0,0,0,0,0,0],"id":15,"left_children":[1,3,5,7,9,11,13,15,17,19,-1,21,23,25,27,29,31,-1,33,35,37,39,41,-1,-1,43,-1,45,47,49,51,53,55,-1,-1,57,59,-1,-1,61,63,65,67,69,71,73,75,77,-1,-1,-1,-1,-1,-1,-1,-1,-1,-1,-1,-1,-1,-1,-1,-1,-1,-1,-1,-1,-1,-1,-1,-1,-1,-1,-1,-1,-1,-1,-1],"loss_changes":[3.672684E-3,6.570774E-4,1.096192E-3,9.079031E-4,5.56604E-4,6.1619875E-4,5.441075E-4,4.1989307E-4,6.1064423E-4,2.6945598E-4,0E0,4.2268634E-4,5.5980636E-5,3.7360215E-4,8.861712E-4,8.892012E-5,5.5478193E-4,0E0,2.2074382E-5,3.5303083E-4,1.336645E-4,1.9255385E-3,6.069376E-4,0E0,0E0,2.8467725E-4,0E0,1.07648244E-4,1.7396151E-4,1.8003957E-6,8.7997876E-5,1.4910515E-4,6.4454786E-4,0E0,0E0,3.682134E-4,2.1262627E-4,0E0,0E0,4.443044E-4,1.0555093E-3,7.1628735E-4,2.7258857E-4,7.134284E-6,7.447321E-6,3.9984807E-6,1.303124E-4,1.3407532E-4,0E0,0E0,0E0,0E0,0E0,0E0,0E0,0E0,0E0,0E0,0E0,0E0,0E0,0E0,0E0,0E0,0E0,0E0,0E0,0E0,0E0,0E0,0E0,0E0,0E0,0E0,0E0,0E0,0E0,0E0,0E0],"parents":[2147483647,0,0,1,1,2,2,3,3,4,4,5,5,6,6,7,7,8,8,9,9,11,11,12,12,13,13,14,14,15,15,16,16,18,18,19,19,20,20,21,21,22,22,25,25,27,27,28,28,29,29,30,30,31,31,32,32,35,35,36,36,39,39,40,40,41,41,42,42,43,43,44,44,45,45,46,46,47,47],"right_children":[2,4,6,8,10,12,14,16,18,20,-1,22,24,26,28,30,32,-1,34,36,38,40,42,-1,-1,44,-1,46,48,50,52,54,56,-1,-1,58,60,-1,-1,62,64,66,68,70,72,74,76,78,-1,-1,-1,-1,-1,-1,-1,-1,-1,-1,-1,-1,-1,-1,-1,-1,-1,-1,-1,-1,-1,-1,-1,-1,-1,-1,-1,-1,-1,-1,-1],"split_conditions":[2.5659052E-1,1.6695958E-1,7.644991E-1,2.1441124E-1,3.884007E-1,9.0509665E-1,8.224956E-1,7.381371E-2,1.9859402E-1,3.602812E-1,-3.93126E-3,6.906854E-1,5.887522E-1,5.9753954E-1,8.5413E-1,8.2601056E-2,5.9753954E-2,-7.694328E-3,1.3884006E-1,3.427065E-1,1.9156414E-1,6.625659E-1,7.644991E-1,1.8311121E-3,4.6092034E-3,7.5043935E-1,6.354675E-3,5.887522E-1,7.644991E-1,9.666081E-2,6.678383E-2,1.3532513E-1,7.7328645E-2,-6.209373E-4,-2.3934366E-3,1.8629174E-1,2.8822497E-1,3.120184E-3,-3.080368E-5,7.644991E-1,6.1335677E-1,4.5518455E-1,7.082601E-1,6.7486817E-1,7.082601E-1,6.414763E-1,8.400703E-1,7.3989457E-1,4.2875293E-3,-1.3113499E-3,-3.1127932E-4,-4.4059756E-4,-3.9384128E-3,-1.9869804E-3,-6.1939717E-3,-2.4353506E-3,1.867015E-4,-9.928371E-4,7.2451506E-4,-3.8808347E-3,-6.1225895E-5,3.0664494E-4,4.0119174E-3,9.931421E-3,-6.8957807E-4,1.6403103E-3,-2.5841808E-3,1.3594628E-4,3.7819864E-3,-1.2159348E-5,-1.0059357E-3,1.1096478E-3,4.387093E-3,-2.3474694E-4,3.7021638E-4,-3.554058E-3,2.0742418E-4,2.2187233E-3,-3.1175613E-4],"split_indices":[2,0,2,4,5,0,2,2,3,5,0,4,2,5,2,5,4,0,0,5,2,4,3,0,0,1,0,5,4,1,4,2,0,0,0,5,3,0,0,5,1,2,2,0,0,0,2,4,0,0,0,0,0,0,0,0,0,0,0,0,0,0,0,0,0,0,0,0,0,0,0,0,0,0,0,0,0,0,0],"split_type":[0,0,0,0,0,0,0,0,0,0,0,0,0,0,0,0,0,0,0,0,0,0,0,0,0,0,0,0,0,0,0,0,0,0,0,0,0,0,0,0,0,0,0,0,0,0,0,0,0,0,0,0,0,0,0,0,0,0,0,0,0,0,0,0,0,0,0,0,0,0,0,0,0,0,0,0,0,0,0],"sum_hessian":[2.97E2,1.17E2,1.8E2,6.2E1,5.5E1,1.51E2,2.9E1,5.5E1,7E0,5.2E1,3E0,1.45E2,6E0,8E0,2.1E1,1.1E1,4.4E1,3E0,4E0,4.8E1,4E0,1.2E2,2.5E1,4E0,2E0,4E0,4E0,5E0,1.6E1,3E0,8E0,5E0,3.9E1,2E0,2E0,4.3E1,5E0,2E0,2E0,1.17E2,3E0,1.8E1,7E0,2E0,2E0,2E0,3E0,1.2E1,4E0,2E0,1E0,1E0,7E0,4E0,1E0,1.1E1,2.8E1,2.2E1,2.1E1,3E0,2E0,1.15E2,2E0,2E0,1E0,4E0,1.4E1,5E0,2E0,1E0,1E0,1E0,1E0,1E0,1E0,2E0,1E0,1E1,2E0],"tree_param":{"num_deleted":"0","num_feature":"6","num_nodes":"79","size_leaf_vector":"1"}},{"base_weights":[4.914943E-5,-3.3911176E-3,2.3232752E-3,-4.0856823E-3,5.551974E-3,1.2897511E-3,6.1514503E-3,-3.6478306E-3,-5.5897236E-3,-2.362609E-3,9.903033E-3,1.745128E-3,-4.9412725E-3,4.16282E-3,1.2096723E-2,-3.8951414E-3,3.459263E-3,-5.7220463E-5,-9.068966E-4,1.2217331E-2,-2.50268E-4,4.715616E-4,7.2790147E-3,-8.5634235E-3,-1.0992686E-3,9.332551E-3,1.8587112E-3,-1.8496515E-4,1.3762951E-2,-7.977724E-3,-3.0447938E-3,8.241177E-4,4.1694404E-3,1.0646457E-3,-9.986003E-3,2.4613699E-2,4.70149E-3,1.657486E-4,-4.44746E-3,7.678986E-4,-2.342987E-3,1.1582851E-2,1.0871887E-3,3.319836E-3,3.8466454E-4,1.5281541E-2,4.6992305E-4,-1.2553215E-3,-2.7344448E-3,-3.670945E-5,-1.4116337E-3,4.95354E-4,-1.8760443E-3,-7.985592E-4,-3.8947822E-3,9.702731E-3,1.3734341E-3,-4.8804653E-4,3.5258988E-3,-1.0359765E-3,3.1471252E-4,1.0404588E-3,4.431939E-3,-8.712224E-4,2.0721573E-3,1.9864084E-3,5.2264025E-3],"categories":[],"categories_nodes":[],"categories_segments":[],"categories_sizes":[],"default_left":[0,0,0,0,0,0,0,0,0,0,0,0,0,0,0,0,0,0,0,0,0,0,0,0,0,0,0,0,0,0,0,0,0,0,0,0,0,0,0,0,0,0,0,0,0,0,0,0,0,0,0,0,0,0,0,0,0,0,0,0,0,0,0,0,0,0,0],"id":16,"left_children":[1,3,5,7,9,11,13,15,-1,17,19,21,23,25,27,29,-1,-1,-1,31,-1,33,35,37,39,41,43,-1,45,47,49,-1,-1,51,53,55,57,-1,-1,-1,59,61,-1,-1,63,65,-1,-1,-1,-1,-1,-1,-1,-1,-1,-1,-1,-1,-1,-1,-1,-1,-1,-1,-1,-1,-1],"loss_changes":[2.3393112E-3,7.61859E-4,7.04238E-4,6.390263E-4,3.333284E-4,4.143804E-4,3.989155E-4,4.540853E-4,0E0,5.1604566E-6,1.592873E-4,9.4096886E-4,1.2974968E-4,3.4000218E-4,1.9913458E-4,3.5064376E-4,0E0,0E0,0E0,4.1409337E-5,0E0,6.9287524E-4,1.0012932E-3,2.9358474E-4,3.330133E-5,7.363857E-5,2.9433053E-4,0E0,1.2423517E-4,3.95003E-5,4.410597E-4,0E0,0E0,4.610205E-4,9.712734E-5,3.164817E-4,1.045475E-3,0E0,0E0,0E0,2.2452907E-5,1.04091945E-4,0E0,0E0,4.490767E-4,1.436437E-5,0E0,0E0,0E0,0E0,0E0,0E0,0E0,0E0,0E0,0E0,0E0,0E0,0E0,0E0,0E0,0E0,0E0,0E0,0E0,0E0,0E0],"parents":[2147483647,0,0,1,1,2,2,3,3,4,4,5,5,6,6,7,7,9,9,10,10,11,11,12,12,13,13,14,14,15,15,19,19,21,21,22,22,23,23,24,24,25,25,26,26,28,28,29,29,30,30,33,33,34,34,35,35,36,36,40,40,41,41,44,44,45,45],"right_children":[2,4,6,8,10,12,14,16,-1,18,20,22,24,26,28,30,-1,-1,-1,32,-1,34,36,38,40,42,44,-1,46,48,50,-1,-1,52,54,56,58,-1,-1,-1,60,62,-1,-1,64,66,-1,-1,-1,-1,-1,-1,-1,-1,-1,-1,-1,-1,-1,-1,-1,-1,-1,-1,-1,-1,-1],"split_conditions":[2.6010546E-1,3.813708E-1,7.3110723E-1,3.6379614E-1,1.8804921E-1,6.9595784E-1,7.71529E-1,3.602812E-1,-5.5897236E-3,3.532513E-1,3.9015818E-1,6.168717E-1,4.7803164E-1,5.237258E-1,6.3268894E-1,8.2601056E-2,3.459263E-3,-5.7220463E-5,-9.068966E-4,2.0386644E-1,-2.50268E-4,5.9050965E-1,4.5518455E-1,4.340949E-1,7.012302E-1,8.5588753E-1,5.5008787E-1,-1.8496515E-4,9.6309316E-1,6.326889E-2,1.3884006E-1,8.241177E-4,4.1694404E-3,5.887522E-1,5.3954303E-1,3.831283E-1,5.659051E-1,1.657486E-4,-4.44746E-3,7.678986E-4,6.7486817E-1,7.820738E-1,1.0871887E-3,3.319836E-3,8.87522E-1,6.3268894E-1,4.6992305E-4,-1.2553215E-3,-2.7344448E-3,-3.670945E-5,-1.4116337E-3,4.95354E-4,-1.8760443E-3,-7.985592E-4,-3.8947822E-3,9.702731E-3,1.3734341E-3,-4.8804653E-4,3.5258988E-3,-1.0359765E-3,3.1471252E-4,1.0404588E-3,4.431939E-3,-8.712224E-4,2.0721573E-3,1.9864084E-3,5.2264025E-3],"split_indices":[5,2,1,4,5,1,5,4,0,1,0,2,4,5,4,3,0,0,0,0,0,2,1,4,1,1,0,0,4,4,2,0,0,1,1,0,0,0,0,0,2,2,0,0,0,0,0,0,0,0,0,0,0,0,0,0,0,0,0,0,0,0,0,0,0,0,0],"split_type":[0,0,0,0,0,0,0,0,0,0,0,0,0,0,0,0,0,0,0,0,0,0,0,0,0,0,0,0,0,0,0,0,0,0,0,0,0,0,0,0,0,0,0,0,0,0,0,0,0,0,0,0,0,0,0,0,0,0,0,0,0,0,0,0,0,0,0],"sum_hessian":[2.97E2,1.18E2,1.79E2,1.1E2,8E0,1.42E2,3.7E1,1.08E2,2E0,3E0,5E0,1.33E2,9E0,2.9E1,8E0,1.07E2,1E0,1E0,2E0,4E0,1E0,1.09E2,2.4E1,4E0,5E0,8E0,2.1E1,1E0,7E0,1.7E1,9E1,1E0,3E0,1.04E2,5E0,2E0,2.2E1,2E0,2E0,1E0,4E0,5E0,3E0,2E0,1.9E1,6E0,1E0,5E0,1.2E1,3.3E1,5.7E1,9.7E1,7E0,2E0,3E0,1E0,1E0,1.2E1,1E1,3E0,1E0,2E0,3E0,1.3E1,6E0,2E0,4E0],"tree_param":{"num_deleted":"0","num_feature":"6","num_nodes":"67","size_leaf_vector":"1"}},{"base_weights":[9.679154E-5,-2.2900177E-3,2.0345831E-3,-7.1201026E-3,-1.6213505E-3,-1.9682504E-3,2.7298757E-3,-2.9185002E-3,-1.8995285E-2,-9.17546E-3,-1.2095434E-3,1.3429224E-3,-7.069302E-3,-7.4822106E-3,3.1603365E-3,-6.914659E-3,1.2706916E-2,-1.6649008E-3,-6.4881807E-3,-1.28191E-3,-5.053139E-3,-5.3474365E-4,-5.028416E-3,-4.7079497E-3,5.4442408E-3,9.4652176E-4,-1.0019779E-2,-9.652615E-4,-2.6430488E-3,7.3307552E-3,2.2466162E-3,-1.4620781E-3,-2.9464655E-3,5.8931354E-3,-1.7502309E-4,-6.2945364E-3,1.1843242E-4,-4.234135E-3,-2.0734242E-3,5.322218E-4,-6.0839653E-3,1.6596317E-3,4.116535E-3,-4.109116E-3,-8.754731E-4,3.8599968E-4,1.0167655E-2,-1.4530695E-3,3.3141754E-3,2.3238659E-4,-6.644726E-4,-5.169256E-4,-3.8162828E-3,9.383381E-4,-2.9330252E-4,6.477356E-4,-1.3994218E-3,-2.1936537E-3,-7.2550774E-4,1.5567184E-3,-4.4875147E-4,-1.5291214E-3,9.189606E-4,-1.8500091E-3,3.4721913E-3,9.202958E-6,-3.8516044E-3,8.658171E-5,1.4863793E-3],"categories":[],"categories_nodes":[],"categories_segments":[],"categories_sizes":[],"default_left":[0,0,0,0,0,0,0,0,0,0,0,0,0,0,0,0,0,0,0,0,0,0,0,0,0,0,0,0,0,0,0,0,0,0,0,0,0,0,0,0,0,0,0,0,0,0,0,0,0,0,0,0,0,0,0,0,0,0,0,0,0,0,0,0,0,0,0,0,0],"id":17,"left_children":[1,3,5,7,9,11,13,15,17,19,21,23,25,27,29,31,33,-1,-1,-1,-1,35,37,39,41,-1,43,-1,-1,45,47,49,-1,-1,-1,51,53,-1,55,-1,57,59,-1,-1,-1,61,63,65,67,-1,-1,-1,-1,-1,-1,-1,-1,-1,-1,-1,-1,-1,-1,-1,-1,-1,-1,-1,-1],"loss_changes":[1.3829506E-3,4.2123807E-4,4.6459126E-4,7.42879E-4,3.590913E-4,4.317551E-4,6.4346846E-4,8.9960534E-4,2.1530432E-5,1.5358662E-4,2.9108615E-4,4.22696E-4,3.33281E-4,5.63261E-6,5.017717E-4,1.5999086E-4,2.8804012E-4,0E0,0E0,0E0,0E0,3.6943707E-4,4.2713838E-4,7.322893E-5,2.904996E-4,0E0,1.689429E-4,0E0,0E0,4.6891312E-4,4.5112427E-4,1.0134996E-5,0E0,0E0,0E0,2.7186074E-4,2.966319E-4,0E0,1.6362163E-4,0E0,9.329422E-6,9.6858064E-5,0E0,0E0,0E0,1.3304768E-4,4.618842E-4,4.396211E-4,4.353326E-4,0E0,0E0,0E0,0E0,0E0,0E0,0E0,0E0,0E0,0E0,0E0,0E0,0E0,0E0,0E0,0E0,0E0,0E0,0E0,0E0],"parents":[2147483647,0,0,1,1,2,2,3,3,4,4,5,5,6,6,7,7,8,8,9,9,10,10,11,11,12,12,13,13,14,14,15,15,16,16,21,21,22,22,23,23,24,24,26,26,29,29,30,30,31,31,35,35,36,36,38,38,40,40,41,41,45,45,46,46,47,47,48,48],"right_children":[2,4,6,8,10,12,14,16,18,20,22,24,26,28,30,32,34,-1,-1,-1,-1,36,38,40,42,-1,44,-1,-1,46,48,50,-1,-1,-1,52,54,-1,56,-1,58,60,-1,-1,-1,62,64,66,68,-1,-1,-1,-1,-1,-1,-1,-1,-1,-1,-1,-1,-1,-1,-1,-1,-1,-1,-1,-1],"split_conditions":[3.075571E-1,7.381371E-2,3.0579966E-1,6.85413E-2,5.9753954E-2,2.2495607E-1,1.6871704E-1,1.0720562E-1,6.326889E-2,1.3532513E-1,3.4797892E-1,1.8804921E-1,2.1968366E-1,1.6871704E-1,3.831283E-1,1.1072056E-1,7.908612E-2,-1.6649008E-3,-6.4881807E-3,-1.28191E-3,-5.053139E-3,7.205624E-2,1.6871704E-1,3.2161686E-1,2.58348E-1,9.4652176E-4,3.7609842E-1,-9.652615E-4,-2.6430488E-3,3.427065E-1,4.8154658E-1,9.314587E-2,-2.9464655E-3,5.8931354E-3,-1.7502309E-4,1.4235501E-1,1.4235501E-1,-4.234135E-3,2.2144112E-1,5.322218E-4,3.4797892E-1,2.1089631E-1,4.116535E-3,-4.109116E-3,-8.754731E-4,3.0579966E-1,1.6871704E-1,7.065026E-1,5.659051E-1,2.3238659E-4,-6.644726E-4,-5.169256E-4,-3.8162828E-3,9.383381E-4,-2.9330252E-4,6.477356E-4,-1.3994218E-3,-2.1936537E-3,-7.2550774E-4,1.5567184E-3,-4.4875147E-4,-1.5291214E-3,9.189606E-4,-1.8500091E-3,3.4721913E-3,9.202958E-6,-3.8516044E-3,8.658171E-5,1.4863793E-3],"split_indices":[3,1,5,1,4,5,0,2,0,2,5,5,0,1,5,5,0,0,0,0,0,2,2,3,4,0,2,0,0,4,5,3,0,0,0,5,1,0,3,0,2,5,0,0,0,4,1,4,3,0,0,0,0,0,0,0,0,0,0,0,0,0,0,0,0,0,0,0,0],"split_type":[0,0,0,0,0,0,0,0,0,0,0,0,0,0,0,0,0,0,0,0,0,0,0,0,0,0,0,0,0,0,0,0,0,0,0,0,0,0,0,0,0,0,0,0,0,0,0,0,0,0,0,0,0,0,0,0,0,0,0,0,0,0,0,0,0,0,0,0,0],"sum_hessian":[2.97E2,1.33E2,1.64E2,1.5E1,1.18E2,2.4E1,1.4E2,1.2E1,3E0,5E0,1.13E2,1.5E1,9E0,5E0,1.35E2,1E1,2E0,1E0,2E0,4E0,1E0,9.7E1,1.6E1,6E0,9E0,2E0,7E0,2E0,3E0,2.3E1,1.12E2,4E0,6E0,1E0,1E0,9E0,8.8E1,3E0,1.3E1,1E0,5E0,7E0,2E0,4E0,3E0,7E0,1.6E1,2.5E1,8.7E1,1E0,3E0,6E0,3E0,2.3E1,6.5E1,5E0,8E0,3E0,2E0,3E0,4E0,2E0,5E0,1E0,1.5E1,2.3E1,2E0,3.1E1,5.6E1],"tree_param":{"num_deleted":"0","num_feature":"6","num_nodes":"69","size_leaf_vector":"1"}},{"base_weights":[-2.257936E-5,-3.5560005E-3,8.0976606E-4,-2.2824192E-3,-1.1071384E-2,2.2877716E-4,3.9227386E-3,-3.5123941E-3,2.9887198E-3,-1.7497635E-2,-2.707243E-4,-2.2860414E-3,7.245624E-4,6.482074E-3,1.2952328E-3,-2.0376206E-3,-1.0384492E-2,1.8367291E-3,-1.3694763E-3,-1.435852E-3,-7.3129656E-3,6.1483384E-4,-5.18179E-4,-1.4808178E-3,-3.0339241E-3,3.5458088E-3,4.5767621E-4,1.105423E-2,4.525884E-3,-4.3096542E-3,5.390962E-3,-4.0501932E-4,-1.1752224E-2,-4.896641E-3,-1.8507242E-3,-1.0092258E-3,9.913445E-4,3.5575628E-3,-2.1247042E-3,1.1595245E-3,-1.3888136E-3,3.91531E-3,4.600525E-4,-9.4728475E-4,5.3002494E-3,2.777338E-3,-8.31604E-3,2.7804375E-3,6.858417E-3,-7.4309966E-4,4.260028E-3,-4.3326975E-3,-1.487732E-4,2.0093918E-4,-1.4118433E-3,-1.8153191E-4,1.5440466E-3,1.0483742E-3,-8.011129E-4,1.4154661E-4,2.6650145E-3,2.3948601E-3,-8.86495E-4,-7.121086E-4,1.8219434E-3,1.1927605E-3,-1.227379E-4,-3.2810927E-3,-6.1483384E-4,1.7638208E-4,9.304047E-4,2.3840906E-3,8.274079E-4],"categories":[],"categories_nodes":[],"categories_segments":[],"categories_sizes":[],"default_left":[0,0,0,0,0,0,0,0,0,0,0,0,0,0,0,0,0,0,0,0,0,0,0,0,0,0,0,0,0,0,0,0,0,0,0,0,0,0,0,0,0,0,0,0,0,0,0,0,0,0,0,0,0,0,0,0,0,0,0,0,0,0,0,0,0,0,0,0,0,0,0,0,0],"id":18,"left_children":[1,3,5,7,9,11,13,15,17,19,21,23,25,27,29,31,33,-1,35,-1,-1,-1,-1,37,-1,-1,39,41,43,45,47,49,51,-1,53,-1,-1,55,57,59,61,-1,-1,-1,63,65,67,69,71,-1,-1,-1,-1,-1,-1,-1,-1,-1,-1,-1,-1,-1,-1,-1,-1,-1,-1,-1,-1,-1,-1,-1,-1],"loss_changes":[8.7930553E-4,5.203032E-4,4.3678435E-4,3.3466602E-4,5.505249E-4,2.572524E-4,2.4714164E-4,3.9436662E-4,1.4495777E-4,3.2053504E-4,1.7057606E-5,1.9930993E-4,5.0389103E-4,1.1990592E-4,4.8235522E-4,5.5034267E-4,3.244856E-4,0E0,5.773017E-5,0E0,0E0,0E0,0E0,1.1137141E-4,0E0,0E0,2.2062688E-4,7.50412E-5,1.05983665E-4,2.7863547E-4,2.6900496E-5,9.732798E-4,1.4424097E-4,0E0,3.1940755E-5,0E0,0E0,2.9576608E-5,9.825418E-5,6.4914965E-4,7.134383E-4,0E0,0E0,0E0,9.745202E-5,1.690293E-5,7.613131E-5,2.3981738E-6,9.326468E-6,0E0,0E0,0E0,0E0,0E0,0E0,0E0,0E0,0E0,0E0,0E0,0E0,0E0,0E0,0E0,0E0,0E0,0E0,0E0,0E0,0E0,0E0,0E0,0E0],"parents":[2147483647,0,0,1,1,2,2,3,3,4,4,5,5,6,6,7,7,8,8,9,9,10,10,11,11,12,12,13,13,14,14,15,15,16,16,18,18,23,23,26,26,27,27,28,28,29,29,30,30,31,31,32,32,34,34,37,37,38,38,39,39,40,40,44,44,45,45,46,46,47,47,48,48],"right_children":[2,4,6,8,10,12,14,16,18,20,22,24,26,28,30,32,34,-1,36,-1,-1,-1,-1,38,-1,-1,40,42,44,46,48,50,52,-1,54,-1,-1,56,58,60,62,-1,-1,-1,64,66,68,70,72,-1,-1,-1,-1,-1,-1,-1,-1,-1,-1,-1,-1,-1,-1,-1,-1,-1,-1,-1,-1,-1,-1,-1,-1],"split_conditions":[1.5114236E-1,1.4235501E-1,7.3110723E-1,1.7750439E-1,1.4411248E-1,1.8101934E-1,8.101933E-1,1.6344464E-1,2.0738137E-1,1.8629174E-1,1.4411248E-1,1.7574692E-1,1.142355E-1,6.924429E-1,8.87522E-1,1.5114236E-1,1.4586994E-1,1.8367291E-3,2.1265379E-1,-1.435852E-3,-7.3129656E-3,6.1483384E-4,-5.18179E-4,7.908612E-2,-3.0339241E-3,3.5458088E-3,5.2899826E-1,7.644991E-1,7.5043935E-1,4.8154658E-1,9.507909E-1,1.3532513E-1,1.6344464E-1,-4.896641E-3,8.435852E-2,-1.0092258E-3,9.913445E-4,9.314587E-2,1.5289983E-1,5.799649E-1,3.497364E-1,3.91531E-3,4.600525E-4,-9.4728475E-4,7.082601E-1,7.820738E-1,6.010545E-1,5.9753954E-1,9.718805E-1,-7.4309966E-4,4.260028E-3,-4.3326975E-3,-1.487732E-4,2.0093918E-4,-1.4118433E-3,-1.8153191E-4,1.5440466E-3,1.0483742E-3,-8.011129E-4,1.4154661E-4,2.6650145E-3,2.3948601E-3,-8.86495E-4,-7.121086E-4,1.8219434E-3,1.1927605E-3,-1.227379E-4,-3.2810927E-3,-6.1483384E-4,1.7638208E-4,9.304047E-4,2.3840906E-3,8.274079E-4],"split_indices":[1,1,1,3,0,4,0,4,5,3,1,4,0,3,1,2,3,0,0,0,0,0,0,2,0,0,1,0,1,3,1,2,0,0,0,0,0,0,1,2,5,0,0,0,2,1,4,2,1,0,0,0,0,0,0,0,0,0,0,0,0,0,0,0,0,0,0,0,0,0,0,0,0],"split_type":[0,0,0,0,0,0,0,0,0,0,0,0,0,0,0,0,0,0,0,0,0,0,0,0,0,0,0,0,0,0,0,0,0,0,0,0,0,0,0,0,0,0,0,0,0,0,0,0,0,0,0,0,0,0,0,0,0,0,0,0,0,0,0,0,0,0,0,0,0,0,0,0,0],"sum_hessian":[2.97E2,5.6E1,2.41E2,4.9E1,7E0,2.04E2,3.7E1,4E1,9E0,4E0,3E0,3.3E1,1.71E2,1.8E1,1.9E1,3.4E1,6E0,5E0,4E0,2E0,2E0,1E0,2E0,3.1E1,2E0,3E0,1.68E2,4E0,1.4E1,8E0,1.1E1,3E1,4E0,3E0,3E0,3E0,1E0,3E0,2.8E1,1.22E2,4.6E1,3E0,1E0,1E0,1.3E1,3E0,5E0,5E0,6E0,2.7E1,3E0,3E0,1E0,2E0,1E0,1E0,2E0,2E0,2.6E1,1.13E2,9E0,6E0,4E1,1E0,1.2E1,2E0,1E0,3E0,2E0,1E0,4E0,4E0,2E0],"tree_param":{"num_deleted":"0","num_feature":"6","num_nodes":"73","size_leaf_vector":"1"}},{"base_weights":[-2.0632007E-5,-2.4511977E-3,7.6455355E-4,-1.7751455E-3,-9.70459E-3,3.506738E-4,3.4568787E-3,-2.8738196E-3,2.66787E-3,-3.2628253E-3,-5.7706836E-4,5.042936E-4,-5.6491853E-3,9.287289E-3,1.6123056E-3,-1.6071796E-3,-5.8608055E-3,-1.2897253E-3,6.8097115E-3,-2.3025047E-4,2.023674E-3,-2.1934034E-3,1.4991761E-4,8.4829335E-5,1.0740916E-2,-3.9560653E-4,5.677581E-3,-3.934238E-3,1.455572E-3,-1.6248608E-2,-1.0441542E-3,9.6855167E-4,-3.3338864E-3,2.3716928E-3,3.5119057E-5,3.6386344E-5,-5.2339556E-3,-2.5211682E-4,4.381011E-3,5.1240926E-4,3.6617662E-3,-5.7170866E-3,1.6815478E-3,9.6678734E-4,2.4932101E-3,-2.1208646E-3,-1.4132263E-4,-1.1270683E-3,1.8003703E-3,-6.9214343E-3,-1.2028695E-3,2.306843E-3,-7.611492E-4,-1.5158844E-3,7.892132E-4,1.5520454E-4,-1.5641343E-3,2.898905E-4,-1.4747144E-3,5.9174066E-3,7.9279934E-4,3.9911273E-4,-2.343464E-3,8.842151E-4,-2.7997972E-4,-3.5591127E-4,6.2398915E-4],"categories":[],"categories_nodes":[],"categories_segments":[],"categories_sizes":[],"default_left":[0,0,0,0,0,0,0,0,0,0,0,0,0,0,0,0,0,0,0,0,0,0,0,0,0,0,0,0,0,0,0,0,0,0,0,0,0,0,0,0,0,0,0,0,0,0,0,0,0,0,0,0,0,0,0,0,0,0,0,0,0,0,0,0,0,0,0],"id":19,"left_children":[1,3,5,7,9,11,13,15,17,-1,-1,19,21,23,25,27,29,31,33,35,37,-1,-1,-1,39,41,43,45,47,49,51,-1,53,-1,-1,55,-1,57,59,-1,-1,61,63,65,-1,-1,-1,-1,-1,-1,-1,-1,-1,-1,-1,-1,-1,-1,-1,-1,-1,-1,-1,-1,-1,-1,-1],"loss_changes":[5.705907E-4,3.40741E-4,2.506193E-4,3.3960387E-4,3.3771736E-5,1.8442317E-4,3.0766454E-4,1.9866962E-4,2.3826695E-4,0E0,0E0,2.1586398E-4,5.4756005E-5,8.85874E-5,1.9815125E-4,2.9081467E-4,7.835846E-4,8.46514E-5,5.0417264E-5,6.019891E-4,3.3908722E-4,0E0,0E0,0E0,5.8549456E-5,1.975237E-4,9.119796E-5,2.4640575E-4,4.4903994E-4,3.2501877E-4,1.759822E-4,0E0,7.48139E-5,0E0,0E0,3.3096442E-4,0E0,1.922631E-4,7.747255E-4,0E0,0E0,8.419542E-5,4.5779707E-5,1.20549885E-5,0E0,0E0,0E0,0E0,0E0,0E0,0E0,0E0,0E0,0E0,0E0,0E0,0E0,0E0,0E0,0E0,0E0,0E0,0E0,0E0,0E0,0E0,0E0],"parents":[2147483647,0,0,1,1,2,2,3,3,4,4,5,5,6,6,7,7,8,8,11,11,12,12,13,13,14,14,15,15,16,16,17,17,18,18,19,19,20,20,24,24,25,25,26,26,27,27,28,28,29,29,30,30,32,32,35,35,37,37,38,38,41,41,42,42,43,43],"right_children":[2,4,6,8,10,12,14,16,18,-1,-1,20,22,24,26,28,30,32,34,36,38,-1,-1,-1,40,42,44,46,48,50,52,-1,54,-1,-1,56,-1,58,60,-1,-1,62,64,66,-1,-1,-1,-1,-1,-1,-1,-1,-1,-1,-1,-1,-1,-1,-1,-1,-1,-1,-1,-1,-1,-1,-1],"split_conditions":[1.6871704E-1,2.513181E-1,7.644991E-1,1.6871704E-1,3.3040422E-1,8.87522E-1,8.101933E-1,1.8629174E-1,1.9156414E-1,-3.2628253E-3,-5.7706836E-4,4.920914E-1,5.9753954E-1,5.483304E-1,9.226714E-1,1.142355E-1,1.4586994E-1,1.4411248E-1,2.5483304E-1,7.012302E-1,5.659051E-1,-2.1934034E-3,1.4991761E-4,8.4829335E-5,4.3760985E-1,8.400703E-1,6.010545E-1,1.00175746E-1,1.00175746E-1,1.00175746E-1,6.85413E-2,9.6855167E-4,2.1441124E-1,2.3716928E-3,3.5119057E-5,4.56942E-1,-5.2339556E-3,5.202109E-1,5.202109E-1,5.1240926E-4,3.6617662E-3,4.8154658E-1,7.469244E-1,8.5413E-1,2.4932101E-3,-2.1208646E-3,-1.4132263E-4,-1.1270683E-3,1.8003703E-3,-6.9214343E-3,-1.2028695E-3,2.306843E-3,-7.611492E-4,-1.5158844E-3,7.892132E-4,1.5520454E-4,-1.5641343E-3,2.898905E-4,-1.4747144E-3,5.9174066E-3,7.9279934E-4,3.9911273E-4,-2.343464E-3,8.842151E-4,-2.7997972E-4,-3.5591127E-4,6.2398915E-4],"split_indices":[0,1,2,1,2,4,2,4,3,0,0,5,1,3,3,5,2,5,4,4,3,0,0,0,5,2,4,0,2,0,0,0,1,0,0,5,0,3,4,0,0,5,4,1,0,0,0,0,0,0,0,0,0,0,0,0,0,0,0,0,0,0,0,0,0,0,0],"split_type":[0,0,0,0,0,0,0,0,0,0,0,0,0,0,0,0,0,0,0,0,0,0,0,0,0,0,0,0,0,0,0,0,0,0,0,0,0,0,0,0,0,0,0,0,0,0,0,0,0,0,0,0,0,0,0,0,0,0,0,0,0,0,0,0,0,0,0],"sum_hessian":[2.97E2,7.2E1,2.25E2,6.7E1,5E0,1.96E2,2.9E1,5.4E1,1.3E1,4E0,1E0,1.92E2,4E0,6E0,2.3E1,3.9E1,1.5E1,7E0,6E0,1.3E2,6.2E1,3E0,1E0,1E0,5E0,1.6E1,7E0,2.2E1,1.7E1,4E0,1.1E1,2E0,5E0,5E0,1E0,1.29E2,1E0,3.2E1,3E1,1E0,4E0,4E0,1.2E1,3E0,4E0,1.1E1,1.1E1,8E0,9E0,2E0,2E0,1E0,1E1,4E0,1E0,1.19E2,1E1,2.6E1,6E0,2E0,2.8E1,1E0,3E0,8E0,4E0,1E0,2E0],"tree_param":{"num_deleted":"0","num_feature":"6","num_nodes":"67","size_leaf_vector":"1"}},{"base_weights":[-3.7298905E-5,-1.7813989E-3,6.109093E-4,-9.661913E-5,-3.3435368E-3,-8.8528334E-4,1.1846868E-3,-1.5974045E-3,7.2067124E-3,-7.3320237E-3,-4.6670437E-5,2.1625559E-4,-4.598754E-3,-6.673527E-3,1.4321308E-3,3.0619758E-5,-7.8813005E-3,-4.029274E-5,3.795612E-3,1.9608021E-3,-8.465582E-3,1.7135409E-3,-4.5662606E-3,2.29373E-3,-2.729789E-4,-3.6942007E-3,-2.2867124E-3,-2.2573115E-3,-4.905224E-4,3.4981251E-3,1.2208349E-3,-4.781935E-3,2.1947385E-3,-8.764267E-3,-3.8752556E-4,-2.0360948E-4,2.8123858E-4,-5.052996E-3,-6.98199E-3,3.6397846E-3,-1.1492372E-3,6.80995E-4,-6.0839653E-3,-2.283891E-3,1.8372328E-3,-9.0132817E-4,-1.4496446E-3,2.6345353E-3,5.6294486E-4,-2.0256452E-3,4.2276384E-4,-2.2403717E-3,1.1049748E-3,-2.9735758E-3,-4.539013E-4,-3.4330233E-3,-1.0524533E-3,-1.4952422E-4,1.5761734E-3,7.87282E-4,-6.189619E-4,-2.3010136E-3,-5.8236124E-4,5.8814458E-5,-1.5697653E-3,3.7765505E-5,1.7192705E-3,9.121896E-5,-7.45225E-4,2.45257E-4,1.973238E-3,-1.3880158E-3,4.2365937E-4],"categories":[],"categories_nodes":[],"categories_segments":[],"categories_sizes":[],"default_left":[0,0,0,0,0,0,0,0,0,0,0,0,0,0,0,0,0,0,0,0,0,0,0,0,0,0,0,0,0,0,0,0,0,0,0,0,0,0,0,0,0,0,0,0,0,0,0,0,0,0,0,0,0,0,0,0,0,0,0,0,0,0,0,0,0,0,0,0,0,0,0,0,0],"id":20,"left_children":[1,3,5,7,9,11,13,15,17,19,21,23,25,27,29,31,33,35,-1,-1,37,39,41,-1,43,-1,45,-1,-1,-1,47,49,51,53,-1,-1,-1,-1,55,57,59,-1,61,63,65,67,-1,69,71,-1,-1,-1,-1,-1,-1,-1,-1,-1,-1,-1,-1,-1,-1,-1,-1,-1,-1,-1,-1,-1,-1,-1,-1],"loss_changes":[3.3798916E-4,2.1285747E-4,1.8819778E-4,4.4994138E-4,5.5193715E-4,2.5051698E-4,3.1678332E-4,3.4807273E-4,2.7674602E-4,3.5401527E-4,1.9875489E-4,1.7655622E-4,2.2157302E-4,9.131807E-6,3.1858872E-4,3.021134E-4,2.9407209E-5,3.1330694E-6,0E0,0E0,1.0612456E-4,1.0344233E-4,8.643829E-5,0E0,1.9939475E-4,0E0,3.796153E-5,0E0,0E0,0E0,1.3988593E-4,1.19296266E-4,3.1516515E-4,3.4934754E-5,0E0,0E0,0E0,0E0,2.2332277E-4,7.6093944E-5,3.300539E-5,0E0,2.4535388E-5,1.7652579E-4,1.5253725E-4,1.7925871E-5,0E0,3.3851113E-4,4.6930427E-4,0E0,0E0,0E0,0E0,0E0,0E0,0E0,0E0,0E0,0E0,0E0,0E0,0E0,0E0,0E0,0E0,0E0,0E0,0E0,0E0,0E0,0E0,0E0,0E0],"parents":[2147483647,0,0,1,1,2,2,3,3,4,4,5,5,6,6,7,7,8,8,9,9,10,10,11,11,12,12,13,13,14,14,15,15,16,16,17,17,20,20,21,21,22,22,24,24,26,26,30,30,31,31,32,32,33,33,38,38,39,39,40,40,42,42,43,43,44,44,45,45,47,47,48,48],"right_children":[2,4,6,8,10,12,14,16,18,20,22,24,26,28,30,32,34,36,-1,-1,38,40,42,-1,44,-1,46,-1,-1,-1,48,50,52,54,-1,-1,-1,-1,56,58,60,-1,62,64,66,68,-1,70,72,-1,-1,-1,-1,-1,-1,-1,-1,-1,-1,-1,-1,-1,-1,-1,-1,-1,-1,-1,-1,-1,-1,-1,-1],"split_conditions":[1.9156414E-1,1.3884006E-1,3.075571E-1,1.1950791E-1,1.7047451E-1,2.513181E-1,1.6871704E-1,1.5289983E-1,7.205624E-2,6.85413E-2,2.513181E-1,1.9683656E-1,2.6010546E-1,3.3040422E-1,1.9156414E-1,6.678383E-2,1.7750439E-1,7.381371E-2,3.795612E-3,1.9608021E-3,7.205624E-2,1.5992971E-1,1.4235501E-1,2.29373E-3,1.8804921E-1,-3.6942007E-3,3.0052724E-1,-2.2573115E-3,-4.905224E-4,3.4981251E-3,4.3760985E-1,1.2478032E-1,4.042179E-2,1.00175746E-1,-3.8752556E-4,-2.0360948E-4,2.8123858E-4,-5.052996E-3,1.9859402E-1,7.7328645E-2,6.85413E-2,6.80995E-4,3.1810194E-1,1.5992971E-1,3.3919156E-1,3.602812E-1,-1.4496446E-3,3.602812E-1,4.920914E-1,-2.0256452E-3,4.2276384E-4,-2.2403717E-3,1.1049748E-3,-2.9735758E-3,-4.539013E-4,-3.4330233E-3,-1.0524533E-3,-1.4952422E-4,1.5761734E-3,7.87282E-4,-6.189619E-4,-2.3010136E-3,-5.8236124E-4,5.8814458E-5,-1.5697653E-3,3.7765505E-5,1.7192705E-3,9.121896E-5,-7.45225E-4,2.45257E-4,1.973238E-3,-1.3880158E-3,4.2365937E-4],"split_indices":[1,2,5,2,2,5,0,5,4,0,2,1,5,2,0,3,3,0,0,0,0,1,0,0,5,0,5,0,0,0,4,0,5,1,0,0,0,0,5,0,5,0,3,5,0,2,0,4,4,0,0,0,0,0,0,0,0,0,0,0,0,0,0,0,0,0,0,0,0,0,0,0,0],"split_type":[0,0,0,0,0,0,0,0,0,0,0,0,0,0,0,0,0,0,0,0,0,0,0,0,0,0,0,0,0,0,0,0,0,0,0,0,0,0,0,0,0,0,0,0,0,0,0,0,0,0,0,0,0,0,0,0,0,0,0,0,0,0,0,0,0,0,0,0,0,0,0,0,0],"sum_hessian":[2.97E2,8E1,2.17E2,3.9E1,4.1E1,6E1,1.57E2,3.3E1,6E0,1.8E1,2.3E1,4.7E1,1.3E1,4E0,1.53E2,2.7E1,6E0,3E0,3E0,1E0,1.7E1,1.7E1,6E0,2E0,4.5E1,2E0,1.1E1,3E0,1E0,2E0,1.51E2,8E0,1.9E1,5E0,1E0,2E0,1E0,1E0,1.6E1,1E1,7E0,1E0,5E0,2.3E1,2.2E1,8E0,3E0,4.7E1,1.04E2,6E0,2E0,2E0,1.7E1,4E0,1E0,6E0,1E1,3E0,7E0,1E0,6E0,3E0,2E0,1.3E1,1E1,1.6E1,6E0,5E0,3E0,3.3E1,1.4E1,1.4E1,9E1],"tree_param":{"num_deleted":"0","num_feature":"6","num_nodes":"73","size_leaf_vector":"1"}},{"base_weights":[-6.66628E-5,-2.5782836E-4,3.8296836E-3,-5.3039393E-3,-1.487766E-4,4.3522026E-3,-4.4445993E-4,-5.733967E-4,-1.9567253E-3,-8.545127E-5,-2.6724816E-3,2.7752877E-3,2.1619322E-3,-3.517431E-4,2.314227E-3,7.457733E-5,3.3758879E-3,1.7802602E-5,-4.6393634E-3,6.386757E-3,-3.031095E-4,1.207924E-3,1.7187595E-3,-1.5461157E-4,8.8493037E-4,1.341641E-3,-1.9531026E-3,6.1311724E-4,2.5729588E-3,-1.5150547E-3,2.9489517E-4,7.1296695E-4,-3.819466E-5],"categories":[],"categories_nodes":[],"categories_segments":[],"categories_sizes":[],"default_left":[0,0,0,0,0,0,0,0,0,0,0,0,0,0,0,0,0,0,0,0,0,0,0,0,0,0,0,0,0,0,0,0,0],"id":21,"left_children":[1,3,5,7,9,11,-1,-1,-1,13,-1,15,-1,17,19,-1,21,23,25,27,29,-1,31,-1,-1,-1,-1,-1,-1,-1,-1,-1,-1],"loss_changes":[2.2295187E-4,1.5604279E-4,4.5300927E-5,1.2336517E-5,1.545542E-4,3.8511615E-5,0E0,0E0,0E0,1.7909911E-4,0E0,1.4336125E-5,0E0,3.993694E-4,3.0039295E-4,0E0,1.7035854E-6,3.6575724E-4,3.700636E-4,8.708474E-5,1.1485747E-4,0E0,5.159942E-6,0E0,0E0,0E0,0E0,0E0,0E0,0E0,0E0,0E0,0E0],"parents":[2147483647,0,0,1,1,2,2,3,3,4,4,5,5,9,9,11,11,13,13,14,14,16,16,17,17,18,18,19,19,20,20,22,22],"right_children":[2,4,6,8,10,12,-1,-1,-1,14,-1,16,-1,18,20,-1,22,24,26,28,30,-1,32,-1,-1,-1,-1,-1,-1,-1,-1,-1,-1],"split_conditions":[8.87522E-1,3.8664322E-2,9.718805E-1,7.381371E-2,8.7170476E-1,7.71529E-1,-4.4445993E-4,-5.733967E-4,-1.9567253E-3,7.627416E-1,-2.6724816E-3,5.237258E-1,2.1619322E-3,7.012302E-1,8.224956E-1,7.457733E-5,9.226714E-1,4.920914E-1,4.5518455E-1,5.9753954E-1,8.400703E-1,1.207924E-3,9.103691E-1,-1.5461157E-4,8.8493037E-4,1.341641E-3,-1.9531026E-3,6.1311724E-4,2.5729588E-3,-1.5150547E-3,2.9489517E-4,7.1296695E-4,-3.819466E-5],"split_indices":[0,0,3,2,0,4,0,0,0,2,0,2,0,4,2,0,0,4,2,5,2,0,1,0,0,0,0,0,0,0,0,0,0],"split_type":[0,0,0,0,0,0,0,0,0,0,0,0,0,0,0,0,0,0,0,0,0,0,0,0,0,0,0,0,0,0,0,0,0],"sum_hessian":[2.97E2,2.84E2,1.3E1,5E0,2.79E2,1.2E1,1E0,2E0,3E0,2.78E2,1E0,9E0,3E0,2.51E2,2.7E1,2E0,7E0,2.32E2,1.9E1,1E1,1.7E1,4E0,3E0,1.97E2,3.5E1,3E0,1.6E1,4E0,6E0,3E0,1.4E1,2E0,1E0],"tree_param":{"num_deleted":"0","num_feature":"6","num_nodes":"33","size_leaf_vector":"1"}},{"base_weights":[-4.4875498E-5,-3.204985E-4,1.8494003E-3,-1.873251E-4,-3.6444187E-3,7.8922906E-4,5.177816E-3,-5.184621E-4,2.8401376E-3,-6.2371255E-3,-8.764267E-4,3.7910673E-3,-4.746697E-4,-5.282879E-4,6.2652826E-3,-2.9512797E-4,-8.732636E-3,1.76994E-2,7.7848847E-4,-5.4740906E-4,-2.9543403E-3,5.330086E-4,-1.7623901E-3,4.4140136E-3,3.221512E-4,1.4052391E-3,-1.2247562E-3,2.046122E-3,3.569126E-4,7.533786E-5,-3.105017E-3,-1.0601521E-3,-3.1345726E-3,7.309413E-3,6.5531733E-4,1.0356188E-2,-1.1759758E-3,-3.1585695E-4,6.952286E-5,-9.1238023E-4,5.0296786E-4,1.7151833E-4,1.487732E-3,-2.8054374E-3,2.1115711E-3,-1.0930747E-4,3.6374435E-3,-5.0488E-3,-3.7803056E-4,3.96142E-3,2.7158263E-4,-3.128338E-3,1.2939771E-4,6.6289905E-4,-1.3122212E-3,7.4987416E-4,-3.2472613E-5],"categories":[],"categories_nodes":[],"categories_segments":[],"categories_sizes":[],"default_left":[0,0,0,0,0,0,0,0,0,0,0,0,0,0,0,0,0,0,0,0,0,0,0,0,0,0,0,0,0,0,0,0,0,0,0,0,0,0,0,0,0,0,0,0,0,0,0,0,0,0,0,0,0,0,0,0,0],"id":22,"left_children":[1,3,5,7,9,11,13,15,17,19,21,23,25,-1,27,29,31,33,35,37,-1,-1,39,41,-1,-1,43,-1,-1,45,47,-1,-1,-1,-1,49,51,-1,-1,-1,-1,-1,-1,53,55,-1,-1,-1,-1,-1,-1,-1,-1,-1,-1,-1,-1],"loss_changes":[1.5618032E-4,1.1485099E-4,1.3000374E-4,2.5410374E-4,6.629953E-5,1.1562009E-4,7.894411E-5,4.1569E-4,7.5208594E-4,9.732778E-5,1.7234644E-5,1.0494274E-5,9.086694E-5,0E0,1.4426274E-5,2.3236977E-4,1.660129E-5,2.5701494E-4,4.4272188E-4,1.4254529E-6,0E0,0E0,2.7088838E-5,1.1825556E-5,0E0,0E0,1.11397276E-4,0E0,0E0,1.0534428E-3,6.3711836E-4,0E0,0E0,0E0,0E0,9.573152E-5,3.0190696E-4,0E0,0E0,0E0,0E0,0E0,0E0,1.1980118E-4,6.2997133E-6,0E0,0E0,0E0,0E0,0E0,0E0,0E0,0E0,0E0,0E0,0E0,0E0],"parents":[2147483647,0,0,1,1,2,2,3,3,4,4,5,5,6,6,7,7,8,8,9,9,10,10,11,11,12,12,14,14,15,15,16,16,17,17,18,18,19,19,22,22,23,23,26,26,29,29,30,30,35,35,36,36,43,43,44,44],"right_children":[2,4,6,8,10,12,14,16,18,20,22,24,26,-1,28,30,32,34,36,38,-1,-1,40,42,-1,-1,44,-1,-1,46,48,-1,-1,-1,-1,50,52,-1,-1,-1,-1,-1,-1,54,56,-1,-1,-1,-1,-1,-1,-1,-1,-1,-1,-1,-1],"split_conditions":[7.3110723E-1,6.9595784E-1,7.71529E-1,6.168717E-1,4.7803164E-1,5.237258E-1,6.3268894E-1,5.9050965E-1,4.5518455E-1,4.340949E-1,7.012302E-1,8.945519E-1,5.5008787E-1,-5.282879E-4,9.6309316E-1,5.325132E-1,5.3954303E-1,3.831283E-1,4.2003515E-1,6.7486817E-1,-2.9543403E-3,5.330086E-4,6.7486817E-1,7.609842E-1,3.221512E-4,1.4052391E-3,8.87522E-1,2.046122E-3,3.569126E-4,4.920914E-1,4.463972E-1,-1.0601521E-3,-3.1345726E-3,7.309413E-3,6.5531733E-4,6.5905094E-1,4.8154658E-1,-3.1585695E-4,6.952286E-5,-9.1238023E-4,5.0296786E-4,1.7151833E-4,1.487732E-3,4.8154658E-1,7.644991E-1,-1.0930747E-4,3.6374435E-3,-5.0488E-3,-3.7803056E-4,3.96142E-3,2.7158263E-4,-3.128338E-3,1.2939771E-4,6.6289905E-4,-1.3122212E-3,7.4987416E-4,-3.2472613E-5],"split_indices":[1,1,5,2,4,5,4,2,1,4,1,1,0,0,4,4,1,0,4,0,0,0,2,1,0,0,0,0,0,4,5,0,0,0,0,1,1,0,0,0,0,0,0,3,5,0,0,0,0,0,0,0,0,0,0,0,0],"split_type":[0,0,0,0,0,0,0,0,0,0,0,0,0,0,0,0,0,0,0,0,0,0,0,0,0,0,0,0,0,0,0,0,0,0,0,0,0,0,0,0,0,0,0,0,0,0,0,0,0,0,0,0,0,0,0,0,0],"sum_hessian":[2.97E2,2.6E2,3.7E1,2.51E2,9E0,2.9E1,8E0,2.27E2,2.4E1,4E0,5E0,8E0,2.1E1,1E0,7E0,2.22E2,5E0,2E0,2.2E1,2E0,2E0,1E0,4E0,6E0,2E0,2E0,1.9E1,6E0,1E0,1.97E2,2.5E1,2E0,3E0,1E0,1E0,3E0,1.9E1,1E0,1E0,3E0,1E0,1E0,5E0,1.3E1,6E0,1.91E2,6E0,2E0,2.3E1,2E0,1E0,2E0,1.7E1,3E0,1E1,5E0,1E0],"tree_param":{"num_deleted":"0","num_feature":"6","num_nodes":"57","size_leaf_vector":"1"}},{"base_weights":[-1.3521054E-5,-1.2010629E-3,3.428003E-4,4.0758223E-6,-2.9658761E-3,2.399597E-3,9.1524955E-5,-2.197504E-3,1.9183159E-3,-4.6372414E-3,5.063057E-4,-4.1532516E-4,2.2350154E-3,-2.6193399E-3,4.8042528E-4,-4.1959286E-3,-7.9866557E-4,-4.513502E-3,3.9556823E-3,-2.2637686E-3,-1.0830211E-2,-3.6331178E-3,3.871441E-3,7.453263E-4,-2.8478624E-3,-4.9147237E-4,-4.408121E-3,-4.8550367E-3,5.976243E-4,-9.920597E-4,-1.7759515E-3,3.5300254E-4,-1.0434509E-3,-8.80003E-4,-2.3561004E-3,-2.7726174E-3,5.2756704E-3,-4.936552E-3,2.5681655E-3,-4.1635038E-4,-3.8531544E-3,1.0194779E-4,-1.9185067E-3,1.4697362E-3,-1.9004346E-4,-1.9435405E-3,4.4800895E-3,-1.4087558E-3,8.134842E-4,-2.7240277E-3,-2.0684053E-3,-1.4748574E-4,-1.8436909E-3,1.6159195E-3,-1.5954138E-4,8.261204E-5,-4.5189858E-4,-3.0391218E-4,5.764961E-4,-6.099701E-4,5.464554E-5,-7.5385097E-4,2.3596287E-3,-2.3240377E-3,-5.315781E-4,1.7062427E-3,2.4204254E-4,5.851746E-4,-1.8683338E-3,1.557374E-3,3.1971933E-5,-7.5068476E-4,-1.8815996E-4,-1.6493798E-4,3.588295E-4,-1.3676167E-3,6.723404E-6,2.974401E-4,4.944134E-3,-7.5805257E-4,3.130726E-4],"categories":[],"categories_nodes":[],"categories_segments":[],"categories_sizes":[],"default_left":[0,0,0,0,0,0,0,0,0,0,0,0,0,0,0,0,0,0,0,0,0,0,0,0,0,0,0,0,0,0,0,0,0,0,0,0,0,0,0,0,0,0,0,0,0,0,0,0,0,0,0,0,0,0,0,0,0,0,0,0,0,0,0,0,0,0,0,0,0,0,0,0,0,0,0,0,0,0,0,0,0],"id":23,"left_children":[1,3,5,7,9,11,13,15,17,19,21,23,-1,25,27,29,31,33,35,37,39,41,43,45,-1,47,49,51,53,55,-1,57,-1,59,-1,-1,61,63,65,-1,-1,-1,-1,-1,-1,67,69,71,73,75,-1,-1,-1,77,79,-1,-1,-1,-1,-1,-1,-1,-1,-1,-1,-1,-1,-1,-1,-1,-1,-1,-1,-1,-1,-1,-1,-1,-1,-1,-1],"loss_changes":[1.2650939E-4,1.4676437E-4,1.1864952E-4,1.812183E-4,1.6483982E-4,3.5851006E-4,2.1843518E-4,5.2558316E-5,3.1924527E-4,2.5476105E-4,1.5336259E-4,1.8618508E-4,0E0,9.6797085E-5,1.1608275E-4,3.8312603E-5,4.1344494E-5,6.590766E-5,3.6233358E-4,2.0639856E-4,7.724238E-5,5.7037658E-5,3.0881158E-5,1.6938373E-4,0E0,1.6707196E-5,3.9845152E-5,1.950439E-5,1.3749904E-4,3.0220085E-6,0E0,2.3375163E-5,0E0,5.269995E-6,0E0,0E0,3.6266044E-4,7.520683E-5,2.8376613E-5,0E0,0E0,0E0,0E0,0E0,0E0,1.7898131E-4,2.121857E-5,5.267786E-6,3.7872614E-6,5.0490933E-5,0E0,0E0,0E0,6.891069E-4,2.9599524E-4,0E0,0E0,0E0,0E0,0E0,0E0,0E0,0E0,0E0,0E0,0E0,0E0,0E0,0E0,0E0,0E0,0E0,0E0,0E0,0E0,0E0,0E0,0E0,0E0,0E0,0E0],"parents":[2147483647,0,0,1,